0,63479;-0,03652;0,75326;-0,10764;0,67949;-0,31285;0,62103;0,60305;-0,68223;0,83246;-1,05582;0,54806;-0,06587;0,6118;0,8979;0,64069;-0,42232;-0,70585;0,20612;0,83809;-0,23193;-0,00266;0,69972;-1,08999;-0,89631;-0,05059;-0,33142;0,04954;-0,53231;-0,23144;-0,57332;0,58231;-1,08907;-0,42598;-0,13579;0,64573;0,90866;-0,24565;-0,98038;0,74725;-0,3844;0,41724;0,03827;0,72613;0,85554;-0,88863;0,77418;-0,74786;-0,44282;-0,5317;0,01092;0,42579;-0,55711;-0,13045;-0,36249;-0,44012;0,1834;0,74605;-0,2778;-0,23185;-0,97843;-0,54183;0,0537;0,45699;0,45539;-0,62912;0,53918;-0,66603;-0,27031;-0,82611;0,79529;0,82039;-0,72797;0,3294;0,07839;0,33102;-0,99966;0,8352;-1,06564;0,92028;0,12065;-0,62225;-0,45613;-1,08072;0,76346;-0,26134;-0,08718;-0,12322;0,81539;-0,69755;-0,59585;-0,99161;-0,94101;0,18631;0,46947;-0,84638;-0,65395;0,4599;-0,60978;0,47419;-0,57729;0,40732;0,3724;-0,77398;-0,34574;0,11113;0,18221;0,0708;0,77403;0,38406;-0,38802;0,17566;0,7606;-0,29747;0,59877;0,67843;0,86647;-0,05509;0,58773;-0,52069;0,4208;-0,47309;-0,6119;-0,58334;0,58205;0,5556;0,84407;-0,17334;0,6951;0,06162;-0,08144;-0,56625;0,44468;-0,49212;0,22714;0,61669;-0,11511;-0,88282;0,09607;-0,30037;0,56441;0,75961;0,13271;-0,56143;0,62041;0,21046;-0,83415;0,14813;0,66065;0,72753;-0,81127;0,25274;0,74208;0,63519;-0,99353;0,93072;-0,10815;0,01191;-0,42699;0,00042;0,17451;-0,67644;0,29061;-0,34969;-0,68682;-0,9741;0,78982;0,08643;0,40584;0,84169;-0,23618;0,66185;0,66359;-0,05933;-0,01866;0,51328;0,33084;-1,07633;-0,34819;-0,6695;0,28965;-0,57644;0,17458;0,97831;-0,16211;0,48399;-0,57167;0,59879;-0,50625;0,36162;-0,28568;0,84834;0,48708;-0,95503;0,32414;0,15376;-0,47205;-0,6158;0,98352;0,45625;0,40045;-0,0999;0,87492;0,57836;-0,0514;-0,63585;0,57338;-0,22681;-0,37886;-0,55367;-0,47026;-0,13456;-0,91559;-0,77408;0,48244;-0,45063;-0,06337;0,21443;0,80471;-0,20964;0,51507;-0,97997;-0,46086;0,85166;0,11242;-0,16433;-0,7675;0,50473;0,435;0,75293;-0,09714;-0,14488;-1,03897;0,10689;-0,02354;-0,65647;-0,34502;0,53345;-0,0981;-0,64053;0,85053;0,64663;-0,13158;-1,0517;-0,23011;0,80244;0,50975;0,09321;-0,51067;-0,3177;-0,90412;0,29808;-0,46053;-0,04099;0,84864;0,32285;-0,72444;0,8098;-0,60156;-1,08649;-0,84576;0,84967;0,25443;-0,19776;0,5712;0,49403;-0,2584;-0,09874;0,26115;0,16166;-1,12254;0,43104;-0,78297;0,47836;-0,00452;0,76345;-0,06842;-0,39949;-0,06777;0,39751;0,26805;-0,00561;0,04024;-0,2991;0,56443;0,56087;-0,85951;-0,09786;0,31997;0,53163;-1,12406;-0,21531;0,05176;-0,16075;-0,96255;0,86467;-0,6858;-0,95707;-0,67974;0,19281;-0,10216;-0,46669;0,74975;0,20125;-0,35254;-0,29618;-0,0395;0,07716;-0,94444;-0,943;-0,8401;0,5507;-0,26251;-0,03211;-0,39242;0,14664;-0,13216;-0,60597;0,34659;-1,05311;0,29518;0,72022;0,50935;0,70625;0,12823;0,08414;-0,67163;0,26065;0,24177;-0,06364;0,26726;-0,09867;-0,71872;0,76003;-0,59205;-0,49763;0,10202;0,66076;-1,0012;-0,26885;-0,35767;0,03501;-0,12214;0,24447;0,2943;-0,67043;0,83318;-1,13393;-0,80162;-0,15537;0,07304;-0,97053;-0,4692;-0,72256;0,73425;0,19754;0,00964;-0,97334;-1,05194;0,48539;-0,7373;0,5498;0,78976;-0,04339;-0,41291;0,1311;0,29532;-0,05686;-0,44062;-0,93989;-1,1012;-0,00363;-0,73497;-0,57136;0,23078;-0,6983;-0,2981;-0,60806;-0,6032;-0,2111;0,27846;-0,77635;0,18557;-0,70956;0,81889;0,38111;-0,66233;0,85771;0,8976;0,19759;0,46997;-0,02113;0,65081;-0,46769;-0,73129;0,01489;0,25429;0,84191;-0,39311;-1,01076;-0,04582;-0,12705;-0,20145;0,54934;0,27006;0,32073;-0,30571;-0,43857;-0,45201;-0,38388;-0,39116;-0,34774;0,53534;0,23593;-0,68909;-0,23471;0,30853;0,00591;0,52388;0,60374;0,25914;-0,32609;0,1495;0,60467;-0,89143;-0,32344;-0,64182;-0,7076;-0,61142;-0,63881;0,09143;-0,54591;0,18044;-0,85028;-0,1882;-0,35861;0,64193;0,8009;0,63633;-0,8663;-0,56341;-0,10852;-0,79861;-0,95515;-0,74018;-0,9191;-0,02704;0,96474;-0,49674;-0,69655;-0,24715;-0,19718;0,25296;-0,55295;-0,98721;0,39369;0,1345;0,16649;0,44197;-0,43594;-0,06111;-0,5836;-0,84951;-0,82491;0,50547;-0,83321;0,4642;0,38202;-0,5889;0,65273;0,11319;0,47195;0,38183;0,37018;0,1639;-0,65634;-0,56145;0,07313;0,36196;-0,99762;0,68564;-0,62296;0,77367;-0,92759;0,60322;-0,71029;0,19239;-0,32077;-0,91562;0,39073;0,46899;-0,54517;-0,65732;0,02568;0,18906;-0,97985;-0,30381;-0,96773;-0,46518;-0,92743;-0,38222;0,58268;0,54567;-0,18312;0,16338;0,24382;0,41342;0,86367;0,27991;0,65051;-0,04214;-0,93261;0,81047;0,41286;-0,13552;-0,4498;-0,36385;-0,9147;-0,47269;0,20497;-0,05195;-0,25156;0,28878;-0,01351;-0,81021;-0,34136;0,10975;-0,68914;-0,80776;0,12454;0,62495;-0,58363;-0,47336;0,2797;0,39198;-0,87244;-0,22346;-0,06394;-0,11125;-0,62959;-0,16377;0,32333;0,40136;-0,58367;-0,56086;0,40188;-0,36942;-0,06943;-0,85169;-0,40593;0,38582;-0,39048;0,47779;0,31348;0,11249;0,82361;-0,71662;-0,42219;-0,34693;-0,49732;-0,90143;0,0934;0,64746;-0,84155;-0,98789;-0,4881;0,51617;-0,47992;-0,95604;-0,28089;0,76475;0,6816;0,16759;-0,83408;-0,65638;0,62643;0,35955;-0,1679;-0,47093;-0,24241;-0,98409;-0,82824;-0,86667;0,55175;0,7292;0,02506;-0,04827;0,18535;-0,86321;0,5219;0,84106;-0,7742;-0,71737;-0,61621;-0,75503;0,73718;0,62482;0,22988;-0,58503;0,90453;0,85163;-0,91313;-0,11849;0,40188;-0,15426;0,65174;0,42309;0,26848;-0,01862;0,44545;-0,52697;0,42106;-0,95866;0,86781;-0,55966;0,9229;-0,0947;-0,93239;-0,60719;-0,02556;0,56748;-0,67227;-0,62379;-0,52514;-0,11149;0,54519;0,39973;-0,20995;0,935;-0,42704;-1,01098;-0,90012;-0,57378;-0,41929;-0,08401;0,91979;0,3099;-0,29338;-0,26934;-0,93251;0,58235;0,63259;-0,80109;-0,32691;0,05303;-0,61267;-0,84313;-0,58572;0,90776;-0,69223;-0,18698;0,54622;-0,18222;0,43483;-0,67328;0,4791;0,69335;-0,60938;-0,47301;0,28714;-0,74775;-0,37487;0,35275;-0,6212;0,46229;-0,67262;0,0024;0,40978;-0,07391;-0,49015;-0,38107;-0,80829;0,34458;-0,67749;0,39;0,90158;-0,85707;0,67286;0,39955;-0,52952;0,33543;-0,01317;-0,15414;0,60385;0,74415;-0,58114;0,27507;-0,01846;-0,77015;0,39228;-0,77199;-0,10844;-0,82348;0,43156;0,81565;-0,04736;-0,71801;0,80578;0,2108;-0,28082;0,38326;-0,27087;0,44445;0,40258;0,66794;-0,36996;-0,81884;-0,48054;-0,96549;-0,57697;0,35668;-0,95655;-0,05888;-0,98497;0,90848;0,23381;0,7459;0,728;-0,37365;0,01618;0,07885;-0,98723;0,17167;0,49758;-0,74315;0,68032;0,97326;0,90949;-0,50681;-0,58329;0,60753;-0,69007;-0,58953;-0,31511;0,07648;-0,40165;0,52572;0,41564;0,91246;0,11832;-0,77316;-0,24966;-0,04301;0,81054;-0,95543;-0,81589;0,94029;-0,83105;0,47859;-0,45831;0,18524;-0,45405;0,18066;-0,78808;0,61151;0,385;0,5315;0,93194;0,13698;0,96746;-0,37658;-0,73965;-0,98923;0,58958;-0,19275;0,00675;0,6015;-0,75999;-0,08033;0,3013;0,69749;-0,68173;0,80904;0,47908;-0,24559;-0,70235;0,02898;0,36567;0,43893;-0,89978;0,74886;0,80946;-0,56685;0,91095;0,25156;0,05106;0,12881;-0,78509;0,06309;0,68366;0,05139;0,57954;-0,72155;0,93001;-0,5077;0,99026;-0,28538;0,34074;-0,00062;0,0391;-0,42292;0,6838;0,22204;-0,82234;0,78483;-0,8541;-0,38334;0,74067;0,53856;-0,75496;0,41564;0,61186;-0,18396;0,35359;-0,02956;-0,27115;0,66704;0,76169;-0,30584;-0,80176;-0,68944;-0,18708;0,31662;0,42159;0,34886;-0,93111;-0,57133;0,36894;-0,48469;0,5273;-0,91803;0,56021;0,59032;-0,96794;0,91001;-0,32104;0,56906;-0,30835;-0,72537;0,83602;0,25055;0,47336;-0,25404;-0,97486;0,73319;-0,40607;0,32944;-0,75834;-0,97513;0,68519;0,16209;-0,66283;-0,05205;0,01928;0,45954;0,28852;0,40759;0,74413;0,4994;0,67809;0,69246;0,20377;0,17482;-0,96275;-0,88041;0,80393;0,95141;-0,24979;0,41485;-0,71952;0,11787;-0,0141;0,43103;-0,21936;-0,04776;-0,18086;-0,92986;0,2204;0,6307;-0,23142;-0,2916;-0,90128;0,2739;-0,19502;-0,61271;0,74005;-0,35207;-0,45139;-0,43606;-0,54149;0,1214;0,72935;0,08471;-0,39769;-0,82873;-1,06692;-0,69096;-0,2963;0,74147;0,90889;-0,3994;-0,45828;-0,18854;0,69057;-0,50877;-0,88621;-0,19249;-0,91963;-0,96109;-0,38235;0,22041;-0,88043;-0,87678;-0,23491;-0,01574;0,53755;0,87494;-0,68159;0,61326;-0,62725;0,14372;0,32103;-0,84606;-0,12643;0,1679;0,29028;0,82394;-0,18436;-0,43337;-0,10251;-0,4745;0,2276;0,37759;0,77031;-0,87426;-0,88073;0,27684;0,61099;-0,8472;-0,83359;-0,1411;-0,49172;-0,60734;0,94669;0,21284;-0,09835;0,6504;-0,65812;0,55369;-0,36739;-1,00744;0,86993;0,08127;0,32674;-0,25655;0,1984;-0,67801;0,82241;-0,50441;0,22069;-0,71796;0,99022;0,44669;0,11696;-1,00432;0,98995;-0,26596;-0,7166;-0,44007;-0,16531;-0,70204;-0,80112;-0,87382;0,42009;0,45343;-0,42606;-0,16455;-0,76008;0,66989;-0,83036;0,65417;0,4182;0,25684;0,88474;-0,19266;-0,49103;-0,87273;-0,93089;0,04101;-0,15716;0,6678;0,28411;0,13772;-0,01796;0,85081;-0,1565;-0,00884;0,26151;0,77928;0,18839;-0,79562;0,29851;0,73485;-0,33946;-0,68217;0,72704;0,79333;0,55183;0,82409;-0,93897;-0,64331;-0,937;-0,84558;-0,69409;0,53082;-0,19416;-0,39211;0,52093;-0,84863;0,40865;0,7364;-0,37305;0,28213;0,69687;0,09755;-0,10345;0,03454;0,09372;0,54059;-0,43484;0,61235;0,47625;-0,64024;-0,59217;0,94406;-0,73334;0,7171;-0,43757;0,63543;0,05737;-0,24265;-0,45178;-0,80366;-0,06998;-0,60049;0,59368;0,09687;-0,22236;0,3732;0,00667;-0,85085;0,42318;0,04298;-0,62936;0,40434;0,5692;-0,96724;0,88917;0,44246;0,40011;-0,35287;-0,36421;-1,03278;0,18637;-0,58529;-0,26615;0,64825;0,6796;-0,66582;0,1746;0,03146;-0,98822;0,92551;0,13341;-0,35663;0,19034;-0,61833;-0,66468;0,29376;0,43833;0,70006;-0,75859;0,58604;-0,42356;-0,60782;-0,81894;-0,58381;-1,0185;-0,02481;-0,62857;-0,79026;0,72307;0,13382;-0,85319;-0,68157;-0,91973;-0,47715;-0,07489;-0,55114;0,60104;-1,05812;0,39473;-0,61546;-0,81635;0,87054;-0,91999;0,44353;0,88611;0,61343;-0,78291;0,08882;0,66836;-0,35423;-1,00486;0,55471;-0,68829;-0,03319;0,35575;-0,27782;-0,72363;-0,63384;0,55302;-0,22189;-1,03679;-0,06937;0,2455;-0,16977;0,63446;-0,31138;-0,39477;-0,39259;0,41245;0,84619;0,56539;0,37485;-0,67497;0,86218;0,39192;-0,36292;-0,769;-0,32849;-0,53407;-0,68221;-0,34383;0,27085;-0,4579;0,12908;0,10669;-0,4035;0,97472;-0,0231;0,06287;-0,82945;-0,85659;0,26703;-0,5935;-0,43565;-0,60536;0,17628;-0,30769;0,22534;0,73252;0,10131;-0,02135;0,54353;0,60089;0,76839;-0,01131;-0,46066;0,18921;-0,56024;0,51878;-0,26842;-0,51194;0,55359;0,779;0,15032;-1,01019;-0,34744;-0,57055;-0,9545;0,80374;0,08539;-0,30949;0,56841;0,48384;0,29178;0,63358;-0,7059;0,04861;0,75568;0,41566;-0,82569;0,93738;-0,06268;-0,14421;0,30097;0,39593;0,03359;0,59206;-0,3162;-0,89;-0,49906;0,33731;0,48923;0,47801;-0,18807;-0,29406;-1,00961;-0,82583;-0,57565;-1,02726;-0,69915;-0,4141;0,06354;-0,91453;-0,59265;-0,7209;0,06051;-0,21435;-0,88899;0,44246;0,15238;-0,91907;0,36952;-0,80286;0,60806;-0,48037;-0,25103;-0,9149;-0,28304;-0,16684;0,80222;-0,19806;-0,85386;0,66758;-0,34801;0,20464;-0,63009;-0,25833;-0,0135;0,9267;-0,09348;-0,1621;0,08994;0,16281;0,21591;0,11712;-0,50442;-0,52944;0,05563;0,43088;0,81027;-0,64732;0,14349;0,2515;0,65208;-0,8272;-0,15536;-0,85019;0,87139;-0,7808;0,92682;0,88515;0,37654;0,60779;-0,84633;0,4552;-0,63448;0,35666;0,3753;0,19913;0,90308;-0,69558;0,73455;-0,92293;-0,43238;-0,71782;-0,03842;-0,87386;-0,15816;-0,52674;-0,96314;-0,81764;-0,10098;0,22671;-0,00647;0,43486;0,6509;-0,13967;0,91738;-0,72289;-0,8197;-0,89099;-0,26711;-0,25277;-1,00924;-0,07682;0,4429;0,39929;-0,17054;0,76908;-0,33175;0,04297;0,03298;0,79825;0,47757;0,45152;-0,49915;-0,06488;-0,27963;0,37311;0,23244;-0,34302;0,28395;0,45519;-0,8041;0,66414;-0,04934;-0,89251;-0,40063;-0,26111;0,73113;0,4749;0,38959;0,03864;0,01716;0,62336;0,50998;-0,02155;-0,97582;0,50356;-0,11745;0,38344;0,17099;0,1192;0,72847;-0,06303;0,16188;0,13797;0,56407;0,39293;-0,16167;-0,33844;-0,97999;-0,42917;0,05056;0,42186;-0,0903;0,32191;-0,52134;-0,69033;0,87719;0,19352;-0,18884;-0,90649;-0,99127;0,1209;0,55695;0,87158;-0,26791;0,86537;-1,03304;0,46781;-0,16432;0,15493;-0,61284;0,8179;0,45035;-0,89605;0,60994;0,21188;-0,45068;0,68232;-0,4965;0,12647;0,78968;0,02811;0,35709;-0,17304;-1,01846;0,47123;-0,22082;-0,86055;-0,52945;0,64588;0,52225;0,4952;-0,43033;0,09091;0,12602;-0,50683;0,23967;0,09459;-0,57648;0,76718;0,42288;0,36369;0,73171;-0,14096;-1,02382;0,16138;-0,99626;-0,28106;0,60888;0,17491;0,75341;-0,88882;-0,21349;0,52324;-0,7597;-0,15727;0,72492;-0,36436;0,85707;0,16007;0,05983;0,76658;-0,1412;0,13272;0,43782;-0,1979;0,09278;-0,68729;-0,05708;0,09326;0,89663;0,32853;0,23492;-0,30843;0,71345;-0,57699;0,28376;-0,57558;-0,26254;-0,29327;0,44814;-1,01809;-0,42996;0,26959;0,94092;0,38514;-0,21472;0,06677;-0,20344;-0,83472;-0,31531;-0,39883;0,15315;0,17447;-0,34943;0,61654;-0,57387;-0,49143;0,37485;0,16076;-0,98644;0,70324;0,67552;-0,67176;0,21908;-0,62252;-0,16573;-0,99105;0,72504;0,71812;0,53927;0,15401;0,84832;0,07971;0,71047;-0,06354;0,13623;0,54069;0,2281;-0,93904;-1,0188;-0,92993;0,44327;-0,26419;-0,54443;0,25047;-0,981;-0,93419;0,86897;-0,86134;0,90495;-0,30286;0,09581;0,59758;-0,32151;0,71654;-0,78023;-0,88186;-0,95942;0,45988;-0,53581;-0,27278;0,25663;-0,0833;-0,40772;0,45725;-0,26608;-0,93593;0,39447;0,67117;-0,61174;-0,18006;0,2771;0,21505;0,05505;-0,98288;-0,8208;-0,0639;0,95626;-0,99859;-0,79978;-0,34494;-0,94904;0,57878;0,75442;-0,20313;-0,90046;-0,83402;-0,5148;-1,07739;-0,27559;-0,04577;0,46781;0,64269;0,46753;0,25503;-0,23581;-0,58456;-0,88063;-0,12526;-0,61842;-1,02777;-0,34126;-0,78932;0,74138;0,03524;0,39345;0,8107;-0,54721;-0,35608;0,58396;0,26361;-0,85385;-0,98103;0,22735;0,82217;-0,46007;0,60933;0,14432;0,76904;0,38771;-0,46451;0,49738;0,4379;-0,18647;0,43037;0,34978;0,53933;0,62258;0,71902;0,13914;0,6227;-0,21686;-0,03658;0,48224;-0,84258;-1,01824;0,77054;0,82822;-0,27859;0,29298;-0,8603;0,5707;0,72285;-0,68795;0,49382;-0,34583;0,50889;-0,58179;0,65268;-0,28845;0,04267;0,31694;-0,7078;0,50216;0,88144;-0,55845;0,18851;0,35364;-0,69557;0,62742;0,77184;-0,89616;-0,21697;0,35143;0,83205;-0,60034;0,20821;-0,53501;-0,0315;0,74855;-0,22509;0,86464;0,31777;0,42134;-0,3999;0,33519;0,7283;0,24748;0,54912;0,28054;-0,15583;0,89544;0,84626;-0,56507;0,84465;0,48811;-0,31465;-1,02191;0,33858;0,42395;-0,00484;0,86218;0,01634;0,04889;-0,22398;-0,09315;-0,86692;0,49948;-0,9348;-0,31632;0,25737;0,39432;0,73218;0,18635;-0,20864;0,70799;-0,96332;-0,44247;-0,81873;0,39857;-0,70267;-0,23749;0,67114;0,61324;-0,2943;-0,86611;0,1765;-0,50148;-0,61587;0,33738;0,52936;0,87494;0,08265;-0,67954;-0,42724;-0,69036;-0,21386;-0,8317;-0,40687;0,59196;0,21959;-0,82506;0,06922;-0,19754;-0,97849;0,41244;-0,8464;-0,3265;0,61839;-0,92826;0,3739;-0,83422;0,79382;0,86366;0,04758;-0,91564;-0,80727;0,38023;-0,66407;-0,449;0,65759;0,59855;0,14575;-0,31408;0,1323;0,30407;-0,85024;0,237;-0,48602;-0,61836;-0,11373;0,85737;0,88549;-0,40812;-0,85175;-1,05499;0,63948;-0,21932;0,56837;0,24234;0,90371;-0,50906;-0,18361;-0,79384;0,83127;0,41617;-0,86892;0,2185;0,17925;-0,55682;-0,85558;0,38207;0,83123;-0,99459;0,8927;0,61927;0,08868;-0,67783;0,65891;-0,31916;0,24883;-0,11605;-1,01321;0,18373;0,2068;0,49709;-0,85266;0,22399;0,56223;-0,00744;-0,51115;0,33343;0,79601;0,04534;-0,2963;0,00403;-0,36781;-0,18715;-0,14879;0,65486;0,19322;-0,09614;-1,03659;-0,85665;-0,71998;0,41474;-0,9673;0,78866;-0,45869;-0,49425;-0,16582;0,27346;0,0714;-0,17421;-1,03728;-0,01467;-0,49244;0,6113;-0,04648;-0,74866;0,19924;-0,19553;0,64964;-0,81473;0,91243;-0,29158;0,60653;-0,19783;0,20955;-0,13638;-0,09656;-0,87639;0,48029;0,90242;0,48113;-0,69664;-0,17252;0,92941;-0,12568;0,75775;0,4253;-0,73667;-0,48834;0,03085;-0,8442;0,20717;-0,84804;-0,13514;-0,0758;0,71716;-0,44806;-0,01031;0,88915;-0,48994;-0,54173;-0,79994;0,15664;0,85921;-0,82595;0,48276;0,79302;0,22875;-0,5135;0,72749;0,50018;-0,34657;0,64974;0,10302;0,24964;0,58968;-0,94109;-0,43167;-0,24094;0,10531;-0,20412;-0,24427;-0,80122;-0,50733;-1,00814;-0,33447;-0,47588;-0,31391;0,7664;0,4574;-0,72207;0,93304;-0,73401;-0,0116;0,40018;0,16565;0,01536;-0,02763;0,66458;0,37601;-1,01306;-0,71114;0,73371;-0,15244;0,57105;0,40571;0,42403;-0,00711;0,57192;0,25285;0,55238;-1,08512;-0,77188;-0,25264;0,67892;0,62243;-1,00023;-0,35725;0,83821;0,41824;-0,19522;0,0151;0,37983;-0,00141;0,40457;0,51666;-0,64301;-0,35039;0,61231;-0,95565;-0,50019;0,05611;-0,25458;0,28259;0,07578;-0,46698;0,01159;0,3653;-0,05488;-0,47986;0,16042;0,60303;0,01468;-0,62456;0,88323;-0,79307;0,71348;0,45323;0,28331;0,76001;0,23715;-0,61989;0,08177;-0,76914;-0,51069;-0,05514;-0,23952;-0,3447;0,3733;-0,97381;-0,05704;-0,2475;0,33122;0,53623;-0,263;-0,56497;0,16213;-0,12861;0,57706;0,09336;-0,48568;-0,46642;0,76177;0,2283;-0,83032;0,22868;0,98591;-0,12928;0,01997;0,11568;0,75552;-0,2112;0,36892;0,83303;-0,2207;-0,81278;0,91712;-0,50735;-0,33066;-0,88673;0,61667;-0,74051;-1,01892;-0,1417;0,46157;-0,57535;-0,80047;0,41442;0,62791;0,42485;0,03078;-0,17089;0,84046;-0,86408;0,18159;-0,39098;-0,39079;0,8965;-0,99953;0,24175;-0,04838;0,88522;0,62106;-0,90455;-0,8174;-0,87242;0,41182;0,47179;-0,26371;-0,51556;-0,54623;-0,46539;-0,82233;0,47418;0,37267;-0,79661;-0,54998;-0,23872;0,63606;0,7793;-0,0482;-0,51919;0,15458;0,55915;-0,98715;-0,07804;-0,07182;0,09556;-0,48521;-0,9721;0,48218;-0,99907;-0,42764;0,31076;0,21116;0,78897;-0,38259;0,83885;-0,38997;0,37287;-0,07402;-0,2428;-0,2854;0,13303;-0,02359;-0,52452;-0,36687;-0,67553;-0,2769;-0,07411;-0,78674;0,66927;-0,86398;-0,91561;-0,65879;-0,57666;-0,35493;-0,97931;-0,92723;-0,11212;0,904;-0,22794;0,01973;-0,78233;0,45657;-0,89854;-0,41008;0,55089;0,56431;0,36921;0,38908;0,76156;-0,15754;-0,09307;-1,07133;-0,16988;-0,46991;0,4767;0,73664;-0,86685;0,50474;0,41732;0,44976;0,12284;0,37697;0,22071;0,26563;0,22924;-0,12699;-0,89106;-0,75048;-1,04895;-0,15965;-0,62713;-0,89599;-0,79685;0,51711;0,71878;0,42782;-0,70275;-0,75108;-0,26448;-0,09115;0,18235;-0,03412;0,16103;-0,61301;0,51987;0,77122;-0,86848;-1,0354;0,74094;-0,04169;-0,30057;0,30667;-0,55809;0,27436;0,83425;-0,15453;-0,82039;-0,24354;0,26456;-0,35236;0,4099;0,08968;0,40837;-0,04145;-0,55314;-0,2961;0,73663;0,22508;-0,24065;-1,05467;0,30553;0,88052;-0,28753;-0,57942;-0,82181;-0,88942;-0,79776;-0,18097;0,72857;0,41208;-0,30968;-1,05854;-0,69226;-0,10856;-0,97315;0,03286;0,65483;-0,18827;0,70084;-0,12962;0,03174;0,52289;-0,13176;-0,94253;0,47361;-0,9892;0,47599;-0,83745;0,87736;-0,29489;-0,91796;-0,12484;0,20595;0,7224;0,62434;-0,16787;-0,40592;0,96178;0,06731;0,70066;-0,4042;0,40466;-0,03814;0,79011;-1,0996;0,39333;-0,21553;-0,65793;-0,15783;0,37283;-0,06151;-0,23684;0,56743;0,7154;-0,21807;0,84581;-0,06412;-0,37159;-0,0732;-0,79804;-0,58256;0,86766;-0,16358;-0,03185;0,24007;0,81526;-0,26811;-0,51404;0,34642;0,19621;-0,65668;0,72772;0,67179;0,85983;-0,77177;0,58393;-0,46272;-0,00687;-0,91888;-1,00483;0,1801;0,14873;0,32037;-0,56998;0,63846;0,21659;0,19785;0,48022;-0,10996;0,69146;0,79143;-1,05589;0,04926;-0,2707;0,20564;-0,31667;-0,53959;0,91052;-0,56597;-0,89727;-0,39749;-0,81925;0,05288;0,5635;-0,02036;0,18138;-0,02458;0,51181;0,46712;0,19705;0,30819;0,83518;-0,59043;-0,27854;0,02535;0,31008;-0,43943;-0,59966;0,25624;-0,99574;-0,60445;0,15677;0,65507;0,55527;0,35551;-0,68656;-0,3528;-0,15099;-0,28868;0,42566;0,09367;-0,54125;-0,48145;0,86963;0,31108;-0,05815;-0,94041;0,6877;0,29898;-0,56926;-0,96456;0,58134;0,85653;0,66316;-0,61414;-1,06959;0,42206;-0,80895;0,65832;0,8324;-0,91476;-0,91134;-0,33707;-0,64915;0,58226;0,35959;-0,49508;0,38705;-0,78238;-0,35122;-0,38546;-0,9207;-0,1208;-0,92984;-0,94563;-0,27265;0,20836;-0,47853;0,33786;-1,03477;0,17075;-0,17132;-0,01593;-0,2301;0,89678;-0,19354;0,23846;0,96934;0,09195;0,23932;-0,20934;-0,59294;0,1399;-0,23682;0,23945;-0,09084;0,75612;-0,97698;-0,76431;0,88889;-0,54214;-0,46268;0,38869;-0,40502;0,83677;-1,02303;-0,30796;0,81559;0,53438;0,5913;-0,2406;-0,16022;-0,25149;0,68742;-0,50584;0,30996;0,0362;0,84004;-0,53001;-0,21585;-0,91637;-0,5126;-0,78177;-0,13949;0,8504;-0,91765;-0,13734;-0,982;-0,25475;-0,03888;-0,09337;0,10529;-0,7138;0,41384;0,46264;-0,3891;0,3532;-0,70266;-0,11845;0,81123;-1,01876;0,49923;-0,70671;0,46435;-0,45314;0,96845;0,52458;0,37599;-0,77068;0,88267;0,80629;0,90006;0,56006;0,35565;0,88905;0,88123;-0,69334;-0,60886;-0,2855;0,61963;0,03542;-0,32493;0,02555;-0,50666;-0,32474;0,48589;-0,58061;0,29334;-0,75495;0,82874;0,94955;-0,35019;-0,11435;-0,41645;-0,26067;-0,48314;-0,79526;-0,27387;-0,6636;0,86802;-0,47028;0,46485;0,62845;-0,29315;0,11616;0,01543;0,58585;-0,06047;0,44365;0,49859;-0,84064;-0,07592;0,5698;0,17784;-0,28976;0,19592;-0,6453;0,67429;-0,21413;-0,03562;0,42503;-0,83439;0,09899;-0,75163;-1,04834;0,16112;-0,12601;-0,15238;-0,55156;0,21305;0,66478;0,63239;-1,04669;-0,09179;0,12306;0,52897;0,01778;-0,83672;0,42684;0,55165;0,90553;0,54752;0,84059;-0,2834;0,63432;0,01828;0,00149;0,63006;0,74778;0,61683;-0,99975;-0,56788;0,84589;0,42314;-0,6263;-0,70318;-0,72627;0,35199;-1,09156;-0,51081;-0,84424;0,42398;0,10003;0,19307;-0,02425;0,62621;0,81877;-0,78407;-0,19669;-0,07858;0,15492;0,86788;-0,74781;0,13825;0,63581;0,72662;0,53315;-0,47276;-0,63293;-1,02501;0,75535;-0,89173;0,2685;-0,31811;-0,03886;-0,51739;0,77262;-0,56553;-0,1408;-0,23087;-0,21634;-0,11871;0,0457;-0,84614;0,8395;-0,09143;-0,96196;-0,46109;0,83772;-0,24984;0,88908;0,11676;-0,80426;-0,31639;0,84394;-0,53419;0,69893;-0,92945;-0,59478;-0,15543;0,16753;0,34718;0,03666;0,91764;-0,36093;-1,02426;-0,89666;-0,5061;-0,81207;-0,59002;0,75994;0,30547;0,43899;-0,93722;-0,84816;-0,72035;-0,21546;-0,99914;0,33939;-0,29356;0,66007;-0,15314;-0,45758;0,60719;-0,91995;-0,51872;0,79431;-0,46061;-0,22937;-0,48058;-0,20575;0,69181;-0,92309;0,77022;0,38448;0,26188;0,69428;0,17861;0,48325;0,73629;-0,15671;0,57732;-0,88198;0,42482;-0,04616;-0,48566;0,73967;-0,87837;-0,54791;0,52441;0,53829;0,5542;-0,32405;0,61238;0,24142;-0,69082;-0,24635;0,52645;0,85047;-0,98459;-0,92875;0,46329;0,66388;0,71295;0,52501;-1,08232;0,13751;0,44526;-0,34142;-0,28556;-0,56213;0,60431;-0,56567;0,36975;0,9046;-1,14108;-0,43317;0,18738;-0,44778;0,44203;-0,22694;0,7419;0,81875;0,0799;-0,13794;0,05374;-0,19979;-0,55803;-0,47396;-0,00642;-0,45431;-0,83435;0,21778;0,41909;0,57307;0,17411;0,92271;-0,67424;0,75707;-0,0916;0,2638;-0,94805;0,4076;0,79575;0,00985;0,92818;0,01772;0,23827;0,61875;0,31742;0,60386;0,48506;-0,16918;-0,73856;0,30731;-0,77781;0,59373;-0,57586;-0,20188;-0,65268;-0,04886;-0,28852;-0,05815;0,50762;-0,87496;-0,77714;-0,78863;-0,03173;0,68764;-0,5107;-1,06043;-0,75548;0,42096;0,48549;-1,02696;-0,48012;-0,68229;-0,91448;-0,86786;-0,10399;-0,99173;0,52194;-0,39212;0,14747;0,44195;-0,05239;0,23177;-0,13944;-0,89696;0,21111;0,65693;0,31512;0,50783;0,29123;0,89772;-0,51486;0,03399;0,84907;0,5974;-0,35317;0,46631;-0,94955;0,3131;-0,04499;0,20471;0,32293;-0,9156;0,33463;-0,80262;-0,41197;0,84905;0,32802;-0,71549;0,85631;-0,62314;0,29696;-1,00996;0,70861;-0,97786;0,11224;0,05733;0,27647;-0,05697;-0,61063;-0,10847;-0,44839;-0,41565;-1,01303;0,45812;0,4759;0,43236;-0,60673;-0,57719;0,39588;0,19038;0,82434;-0,81814;0,57889;0,86638;-0,89385;-0,24775;0,6457;-0,41889;0,37588;0,31588;-0,82588;-0,02976;0,50842;-0,1714;-0,53932;-0,57019;0,28086;0,82984;-0,7028;0,48888;-0,86539;0,10793;-0,11181;-0,96874;-0,32636;-0,40129;-0,94163;0,91001;-0,35435;0,05032;0,46545;-0,25458;-0,11759;-0,43156;-0,59714;0,20436;-0,66147;0,78879;0,87132;-0,82802;0,2423;-0,24202;0,39371;0,00272;-0,33081;0,47089;-0,04007;-0,01928;-0,10432;0,00142;-0,89968;-0,54991;-0,96039;0,77721;-0,00162;-0,34807;0,11594;0,37455;0,227;0,38713;-0,23331;0,85605;0,95998;-0,84342;0,6794;0,27206;-0,93382;-0,16546;-0,57494;0,26759;0,9046;0,57857;0,85801;-0,89389;-0,88534;0,28883;0,666;0,78678;0,37825;0,10498;0,50023;-0,09761;-0,20372;0,44024;-0,06716;0,02719;-0,26039;-0,00625;0,378;0,64796;-1,08424;-0,10664;-0,5237;-0,48096;0,41701;0,43388;-0,20888;0,16691;0,3083;0,17779;0,22808;-0,88112;-0,38727;0,71258;0,17224;-0,63463;-0,53118;0,81207;0,65184;0,6802;-0,02668;0,26759;0,96379;-1,05698;0,73394;0,8424;-0,12854;-0,63021;0,12255;-0,2995;-0,50041;0,02026;0,36826;-0,34405;0,16022;-0,11118;-0,06062;0,33428;-0,29123;-0,39359;-0,3946;-0,53235;-0,54224;-0,79602;0,7422;0,50819;-0,81725;0,04782;-0,62126;-0,45063;-0,57215;-0,19832;0,37496;0,69259;-0,45334;-0,36745;0,00599;-0,64351;-0,2649;0,54789;-0,5386;-0,62546;0,95115;-0,44134;-0,36077;-0,03689;0,0806;0,55117;0,87229;-0,99255;-0,06502;0,88421;-0,37381;-0,98854;0,01471;-0,67343;-0,51029;-0,43967;-0,09528;0,70953;-0,60373;-0,51761;-0,05482;0,58737;0,29557;-0,32804;-0,48883;-0,91043;-0,16481;0,4775;-1,03918;-0,35846;0,74892;-0,69386;-0,89523;0,58363;0,31249;0,53426;-0,05753;0,72595;-0,75719;0,50789;-0,72395;-0,54906;0,70166;0,42381;0,38622;0,00436;0,32455;0,31566;-0,52017;-0,4245;-0,50499;0,92441;-0,63327;-0,37934;0,74998;-0,37087;0,73403;0,44141;-0,55619;-0,11395;-0,34527;-0,66915;-0,87628;-0,77817;-0,94316;-0,789;0,91213;0,34868;-0,04421;-0,12439;0,61783;0,11719;0,33418;-0,0563;-0,81235;-0,44231;0,80132;0,76585;0,26876;0,43375;-0,37791;0,44845;-0,01666;0,41748;-0,78872;0,83196;-1,01453;0,45073;0,59636;-0,58022;0,66788;0,28228;0,32333;0,28831;-0,33453;0,97887;-0,69174;0,23008;0,30336;0,0937;0,05489;0,9096;-0,77031;0,46572;-0,1533;0,20181;-0,54828;0,38814;-0,60515;0,19366;-0,25019;0,96318;-0,78314;0,00743;-0,82931;0,07638;0,27135;-0,30783;-0,94743;-0,82404;-0,87462;-0,60645;0,61605;-0,46402;0,07961;-0,7795;0,74019;0,90332;-0,98552;-0,7797;-0,96037;-0,61238;-0,45737;-0,83728;-0,68666;-0,29979;0,29131;0,2558;-0,61911;-0,16361;0,30937;-0,5768;0,06571;-0,59614;0,54043;0,76074;0,13106;-0,80167;0,13553;0,4579;-0,49603;0,62507;0,09902;0,07011;-0,13718;-0,48082;-0,89876;0,6769;-0,55991;-0,33558;0,42183;-0,56577;0,31611;-1,00523;0,15231;-0,69679;0,31861;-1,0705;-0,35452;0,56097;0,72745;0,94068;-0,74093;0,12401;-0,18485;0,54452;0,38594;0,28879;-0,20724;0,30258;-0,05205;0,53469;-0,28779;-0,57575;0,50357;-0,63759;0,2885;0,47042;0,16341;0,5697;-0,66443;0,62843;-0,07902;0,70181;0,31608;-0,22455;0,10661;-0,19323;0,12512;0,25663;-0,66626;0,10664;0,49856;0,53418;0,59942;-0,36536;0,27649;0,95393;-0,86958;0,29343;0,13148;-0,24109;-0,22255;0,08364;0,61019;0,70528;0,65572;-0,3726;-0,63983;-0,40981;-0,00377;0,82479;-0,20079;-0,03446;0,05733;-0,92932;-0,04339;-0,53797;0,71116;-0,93815;-0,73287;-0,5789;-0,96154;0,5457;-0,19423;0,84823;-1,01446;0,26625;-0,17619;-0,09084;0,01451;0,28453;0,33848;0,6879;-0,58053;0,48508;-0,2495;0,70436;-1,01215;0,47186;-0,0027;-0,63994;-0,55295;-0,48846;-0,75718;-0,45781;-0,86773;-0,63635;-0,52304;0,47062;0,58859;-0,22588;-0,8724;-1,00949;-0,17572;-0,37032;-0,33222;0,17803;-0,88192;0,64956;0,68591;-0,54781;0,92996;0,39348;0,55116;0,64356;-0,49036;0,03956;-0,62168;0,38632;0,24573;0,10609;-0,52479;-0,80996;0,03834;0,82023;-1,04369;0,46163;0,27001;-0,72817;0,61902;0,66444;-0,34108;0,16614;0,31662;-0,81125;0,01957;0,25315;-0,20553;0,78829;-0,22343;0,47565;0,50422;-0,77221;0,74635;-0,50876;-0,56349;-0,12904;-0,04952;-0,57729;-0,97686;0,12592;0,89695;-0,17052;-0,92551;-0,64612;-0,79597;0,86596;0,00271;0,0366;-0,49367;0,29213;0,91515;0,8876;0,9295;-1,07291;0,58877;-0,49349;-0,82259;0,25202;-0,46241;0,15213;-0,92416;-0,55065;-0,33337;0,78111;0,51069;-0,83708;-0,71516;-0,59618;0,28273;0,02038;-0,58486;-0,1626;-0,81468;-0,48451;0,72036;0,82785;0,13326;-0,2679;0,84915;0,10568;-0,78693;0,81973;0,36438;0,39017;0,57183;0,54179;-0,57509;0,81421;-0,19323;0,77383;-0,33724;0,56543;0,74066;-0,16822;-0,06859;0,33291;-0,91008;-0,78398;-0,25132;-0,92273;0,6001;-0,53206;0,52979;0,34149;-0,3025;0,0029;0,77721;0,26504;-0,66177;0,81887;0,36771;0,35235;0,34064;0,50702;-0,16533;-0,70176;0,21717;0,26221;-0,79806;0,95108;0,73374;-0,58252;0,46896;0,4669;-0,57614;-0,30725;-0,08099;0,2594;0,58727;-0,66676;0,60754;-0,17362;0,96813;-0,93946;0,6672;0,00084;-0,69083;-0,03105;-0,26534;-0,17016;0,62245;-0,674;0,77329;0,81564;-0,89397;0,93553;-1,00316;0,11633;0,69675;0,36111;-0,7303;0,64171;-0,91053;-0,04265;-0,00705;-0,59805;0,54109;0,70575;0,29899;-0,58848;0,05348;-0,0524;0,68046;-0,65128;0,83587;-0,60961;-0,02003;-0,48131;-0,58541;0,18423;0,6383;-0,20265;-0,15905;-0,09589;0,89762;-0,75657;0,60867;-0,68055;-0,7634;0,21637;-0,46821;-0,8791;-0,33999;-0,12409;-0,29665;-0,86528;-0,80267;0,89054;0,04277;0,18662;0,40679;-0,43876;0,71906;-0,68619;0,72537;-0,3477;-0,43347;0,43951;-0,99662;0,64503;-0,05986;0,50064;-0,31893;-0,46309;0,72449;0,45485;-0,24842;0,05713;0,03605;-0,21142;-0,2297;0,14422;0,40934;-1,02367;0,89993;-0,11829;-0,69388;-0,16317;0,48558;0,54505;-0,88369;0,00025;0,46857;0,16421;0,72773;0,12305;0,05442;-0,60603;0,1779;0,2258;0,57315;-0,80018;-0,66225;-0,47821;-0,699;-0,06461;0,35497;-0,9068;0,14909;0,25019;0,38524;0,13578;-0,09209;-0,74678;-0,67232;-0,75945;0,13381;0,70775;-0,59124;-0,23317;-0,68265;0,71732;0,83843;-0,5913;0,46972;0,86432;-0,96422;0,39798;-0,29865;-0,40808;-0,73498;-0,74891;0,95181;0,76207;0,14815;-0,45825;-0,1171;-0,2602;0,61296;-0,11718;0,45011;-0,89969;0,68985;-0,76403;-0,86803;0,01865;-0,88825;0,1469;-0,17687;0,44407;0,89339;0,37161;0,92;-0,664;-0,14587;0,78952;-0,78128;0,92805;0,08387;-0,6415;-0,06249;0,89304;0,30565;-0,49693;-0,01599;0,08278;0,18054;0,05891;0,05982;0,81397;0,29873;-0,67908;-0,99693;0,55517;0,31726;-0,89573;-0,93001;0,616;-0,82293;-0,58751;0,72122;-0,1836;-0,41248;0,21592;-0,43577;-0,12679;-0,66714;0,6147;-0,1894;0,21131;-0,78109;-0,08971;0,71831;0,2709;0,91326;0,52995;-0,24894;0,10332;0,21709;0,07868;0,80722;-0,01872;-0,97933;0,00966;-0,96442;0,63928;0,29129;-0,64332;-0,06975;-0,27589;0,70818;-0,43047;0,65461;-0,37725;-0,39296;-1,00337;0,31829;-1,01592;0,81104;-0,97453;-0,27889;0,5221;-0,76993;0,78776;0,51999;-0,65907;-0,44279;-0,30821;0,58604;0,782;0,28712;-0,13882;-0,60381;0,0705;-0,46446;-0,26101;-0,26305;0,59595;0,16974;-0,0186;0,56742;0,86026;-0,38737;-0,93696;0,49867;0,59973;0,19835;0,03591;-0,35624;0,80944;-0,87183;-0,26838;0,21348;0,17473;-0,62442;-0,75126;-0,39061;-0,7963;0,44079;0,68334;-0,01294;-0,40776;-0,27259;0,12352;0,30442;-0,17888;-0,86997;-0,38836;-1,03706;0,80642;0,2458;0,71064;-0,16955;-0,18767;-0,57218;-0,24409;-0,07185;-0,78784;-0,76782;0,78871;0,16584;0,41061;-0,913;0,73878;0,58076;-0,4252;0,61039;0,19491;-0,35235;-0,74672;-0,9396;-0,42988;-0,93169;0,39779;0,96383;-0,01738;0,06835;0,38361;-0,34876;-0,36884;0,4514;-0,46102;0,03144;-0,1845;-0,45565;-0,65501;0,79111;-0,67346;-0,24704;0,5425;0,33317;-0,54336;0,90961;0,5476;-0,56052;0,50161;-0,57574;-0,025;0,51728;-0,25401;0,12337;-0,0174;0,91898;0,71835;0,61721;-0,38567;0,62649;0,37894;-0,13993;0,43724;0,62669;0,46166;0,49363;0,52546;-0,66223;-0,39829;-0,59501;0,25253;0,08475;0,15563;-0,3225;0,25547;-0,57897;0,15127;-0,13106;0,6502;-0,36099;-0,53306;-0,02705;-0,63078;-0,59307;-0,90966;0,85242;0,92844;0,54351;-0,60773;-0,44561;0,2478;0,17059;0,93232;-0,31662;-0,62884;0,44252;0,2322;0,80466;0,85288;-0,07146;-0,71325;0,1326;0,8544;0,08372;0,17285;0,88818;-0,71636;-1,05246;0,78002;-0,4995;-0,2653;-0,15314;0,93432;-0,95455;0,17791;-0,58573;-0,49277;-0,08251;0,61185;0,53638;0,52853;-0,94892;0,94151;-1,01832;0,10257;-0,90546;0,14091;-0,56881;-0,71056;0,81004;0,03616;0,27692;0,02554;-0,30272;-0,68743;0,26254;0,09392;0,26879;0,13112;-0,7611;-0,57456;-0,26483;0,89173;-0,49027;0,70948;-0,37702;-0,42856;-0,45859;0,29963;0,69198;0,31012;0,06576;-0,48306;-0,02798;-0,75899;0,52001;0,69533;-0,13318;0,23366;0,51705;-0,20791;-0,7169;0,91021;-0,43466;-0,85873;-0,73634;0,48016;0,33799;0,0862;-0,63373;0,23053;0,04249;0,2105;-0,51768;-0,12449;0,03666;0,17004;0,97334;-0,52777;-0,52434;0,38902;0,86274;0,39107;-0,967;0,94134;-0,44715;-0,68452;-0,11616;0,07769;0,63085;0,61448;-0,36524;-0,67747;0,57584;0,43052;-0,8573;-0,21636;0,33145;-0,64502;0,4179;0,09968;0,22362;0,44094;-0,06783;-0,55269;-0,73518;0,83825;-1,01518;-0,8889;0,18172;-0,65078;0,67653;-0,6782;-0,24485;-0,88051;-0,11451;-0,18307;0,85121;-0,37072;0,57791;0,95624;-0,41745;-0,79351;0,35207;-0,34419;-0,4586;-0,34723;0,60751;0,03958;-0,31756;-0,75309;0,80639;0,52314;0,04985;0,3464;-0,87426;-0,5775;-0,55467;0,55223;0,63589;-0,335;-0,73242;-0,22187;0,90464;0,30539;0,90761;-0,69415;0,59755;0,46223;-0,48647;0,29731;-0,09091;-0,28627;-0,21156;0,42107;-0,52309;-0,01136;-0,96097;-0,72715;0,83634;0,56631;-0,77864;-0,10803;0,36271;-0,04226;-0,53835;-0,91175;0,29969;0,36843;0,98772;-0,5339;-0,61323;-0,80366;-0,07304;-0,14375;0,65573;0,74399;-0,68687;-0,93703;-0,30154;-0,72158;0,07598;-0,88345;-0,4706;0,34093;0,25949;0,09671;-0,27494;0,59244;-0,17784;0,08687;-0,68838;-0,843;0,72754;-0,92867;-0,57206;0,32594;0,38473;-0,10494;-0,18447;0,79552;-0,03397;-0,83008;0,45401;-0,93351;-0,15767;-0,30222;0,73618;0,86776;0,75539;-0,31687;-0,31442;-1,01993;0,5028;0,57043;-0,53356;-0,90743;-0,66003;-1,03224;0,60111;0,35465;0,37361;0,7001;-0,50812;-0,17281;-0,93806;-0,74862;-0,49139;-0,15895;-0,56036;-0,71739;-0,64424;0,31437;0,20957;-0,0834;0,25557;-0,14483;-0,38384;-0,5458;-0,55491;-0,39376;0,27625;-0,17311;0,76017;-0,86941;-0,64562;-0,68771;-0,40663;-0,8664;0,57269;-0,73909;-0,04029;0,31494;0,23677;0,37645;-0,59769;0,25396;0,67209;-0,40694;0,92542;-0,41603;-0,83052;-0,0937;0,44244;0,49567;-0,7119;0,30721;-0,2843;-0,42015;-0,72446;0,62985;0,45946;0,92303;0,4902;0,03257;-0,93276;-0,48028;0,88121;-0,67434;-0,53577;0,70406;0,59965;-0,6679;0,24658;-0,88186;0,27462;0,0214;-0,92574;0,79372;-0,48796;-1,01913;0,08422;-1,0149;-0,50788;0,84058;-0,60424;-0,66251;0,33014;-0,71822;0,76786;0,01879;0,56597;-0,98251;0,78486;0,89949;-0,22804;0,06257;0,81384;-0,79306;0,31534;0,85382;0,35844;0,36627;-0,91417;-0,833;-0,02986;0,74569;0,67827;0,2703;-0,82081;0,28016;0,25148;-0,097;-0,94123;-0,74046;-0,51637;0,47792;0,35979;0,60606;-0,38886;0,70058;0,1257;0,57357;-0,48319;0,43957;-0,87346;0,55935;-0,47064;0,28384;0,32066;-0,78402;0,16044;0,81185;-0,48548;-0,38553;-0,39147;0,74776;0,90949;-0,75783;-0,19195;-0,39547;-0,34646;-0,97468;-0,90869;-0,49498;0,72696;-0,29332;0,92518;0,52003;0,3816;0,27445;0,63137;-0,85678;0,58457;0,57829;-0,30573;0,74453;-0,20918;-0,42407;-0,93601;0,4008;0,20965;-0,63476;0,91106;0,95174;-0,90941;0,39813;-0,62446;0,46321;0,63919;-0,26719;0,56179;0,11221;-0,19938;0,91798;-0,00688;0,07518;0,49462;-0,97075;0,72091;0,37282;0,6182;-0,05144;0,90881;-0,96103;-0,46588;-0,05756;-0,81316;-0,12403;0,85479;-0,14828;-0,10797;0,2599;-0,84781;0,39408;0,36646;-0,70398;-0,90553;-0,92623;-0,66546;-0,74734;-0,72271;-0,559;0,91046;-0,41276;0,75023;-0,47658;0,34808;0,65762;-0,47785;0,63445;-0,77587;-0,24084;-0,11539;-0,33724;0,7624;-0,76058;-0,56354;0,85265;0,38269;0,10726;0,25381;0,41442;0,55046;-0,24346;0,82506;-0,72848;-0,08461;0,35764;-0,43771;-0,79583;-0,03293;0,86327;0,15977;-0,17648;-0,7566;-0,23533;0,76778;-0,04975;0,27023;-0,17883;0,20752;-0,31681;-0,77367;0,79815;-0,80996;-0,05235;-0,04252;0,73485;0,61792;0,50194;-1,18865;0,22798;0,08969;-0,99285;0,67074;0,85041;0,56978;-0,91715;-0,07511;0,85002;-0,10894;-0,91358;0,22085;0,78568;-0,58319;-0,47266;-0,61469;0,53452;0,11139;-1,09601;0,11359;-0,6077;-0,83249;-0,33228;0,79454;-0,22647;-0,31763;-0,48941;0,17252;0,33989;-0,45811;0,1237;0,08224;-0,21929;-0,92291;0,75299;-0,20923;-0,00005;0,15262;-0,60007;0,02731;0,5625;0,81695;0,45622;0,77838;0,31288;0,51031;-0,83756;0,49396;0,87204;-0,47998;0,37837;-0,3955;0,60411;-0,51414;0,62238;-0,17875;-0,55675;-0,75569;0,34571;0,39923;0,11251;-0,23851;0,60394;0,11101;0,77057;-0,05447;-0,5543;0,73718;0,10456;0,58309;0,40631;-0,31633;-0,33994;-0,01955;0,48589;-0,60906;-0,36964;-0,44912;-0,41995;0,07012;-0,67707;0,18042;0,48657;-0,31506;0,19561;-0,68387;0,43184;-0,68825;-0,26184;-0,28497;-0,82796;-0,23411;0,64345;0,07231;-0,83573;-0,374;-0,64097;-0,75411;-0,86352;-0,93694;0,24267;-0,64133;-0,42795;-1,00831;0,27908;-0,30543;0,92922;-0,46074;-0,03122;-0,20587;-0,62339;0,96776;0,62474;-0,80391;-0,004;0,90346;0,3859;-0,0633;0,946;0,26476;0,4225;-0,94339;0,09612;-0,74665;0,24949;-0,40711;0,01366;0,57366;-0,15301;-0,22221;-0,9172;-0,56147;-0,6629;-0,60502;0,85099;0,913;-0,23902;0,50437;0,2423;-0,33041;-0,49878;-0,42301;0,34174;0,78671;-0,64861;-0,69995;0,06065;0,52504;-0,76269;-0,83629;0,13134;0,36268;-0,62353;0,0065;-0,26888;0,19162;0,39722;-0,85108;-0,27156;-0,38291;0,83774;-0,58325;0,7239;-0,8667;-0,51176;0,79964;0,56178;0,35247;-0,57297;-0,10035;-0,00332;0,94291;0,54343;0,20566;-0,26658;-0,25211;-0,25724;0,19121;0,92212;-0,1399;0,49049;0,254;0,28617;-0,4418;0,46539;-0,00448;-0,99465;0,68694;0,65794;-0,28187;-0,53417;-0,48136;-0,34383;-0,33425;-0,34424;-0,99385;0,0337;0,12039;0,35829;-0,50921;-0,15942;0,69206;0,10193;0,19938;0,18363;0,11782;0,75733;-0,10469;-0,90968;-1,00395;-0,6581;-0,82557;-0,75122;1,00872;0,25461;-0,35081;0,11132;0,05815;-0,45772;0,40511;0,84809;-1,16261;0,63575;0,83317;-0,55496;-0,49543;0,30254;-0,10993;-0,56647;-0,3509;0,74679;0,6191;0,76933;0,45163;-1,03724;0,82985;-0,92969;1,04487;0,24393;-0,90488;0,19843;-0,01157;0,30427;0,62703;-0,92684;-0,6761;-0,6359;-0,12699;0,40749;-0,72814;-0,12122;0,72812;-0,4805;0,94124;-0,48391;-0,27237;-1,03628;0,17146;-0,21353;-0,22376;1,04478;-0,15664;-0,3434;0,5261;-0,78692;-0,10284;-0,61801;-0,26937;0,81386;0,25252;-0,55651;0,09231;0,78787;-0,55178;-0,76021;-0,18831;-0,51107;-1,03038;0,80926;-1,04701;-0,99385;-0,53713;0,53296;-0,71843;0,65826;0,84923;0,10752;0,87147;-0,04023;0,17852;0,73882;-0,31095;0,08856;-0,31312;-0,76316;-0,64972;-0,51765;0,80531;0,47279;0,11265;0,89964;0,72125;-0,07439;-0,66266;0,77079;0,75613;-0,86552;-0,96138;0,62891;0,46336;-0,71296;-0,89905;0,51018;-0,208;-0,18642;0,54116;0,56667;-0,79746;0,79138;-0,6359;0,77959;-0,51569;0,79052;-0,44873;0,53364;0,65174;-0,93006;0,26378;-0,90118;1,02439;-0,67467;-0,20595;-0,45136;-0,26422;-0,76977;-0,61238;0,54656;-0,05994;-0,61053;0,89828;0,82625;-0,12784;-0,7254;0,24943;0,03202;0,5532;0,40648;-0,60347;0,94925;-0,28176;-0,39154;-0,94282;-0,88916;-0,03545;0,22868;0,48401;0,96052;-0,7815;-0,2143;-0,83749;0,5928;-0,0989;-1,06684;0,71533;0,36961;0,54897;0,58365;-0,12285;-0,40059;-0,69616;0,88654;-0,37803;0,73725;0,79987;-0,61852;0,08834;-0,78064;-0,43388;0,62626;0,99158;0,15509;0,4279;0,15461;0,56159;0,63189;-1,06177;0,51811;-0,35087;0,03686;-0,9972;-0,79736;-0,25195;-0,94008;0,07897;0,29382;0,4043;0,83575;-1,05645;0,80394;-0,59929;0,69416;-0,55731;0,46429;0,69054;-0,70352;0,05957;0,59757;-0,30918;-0,43444;-0,4374;-0,43658;0,42036;-0,23678;0,14305;-0,48286;-0,37741;-0,90514;0,78087;0,83571;-0,76269;0,53423;0,61849;0,58401;-0,75745;0,53492;0,48091;0,28084;-0,41256;-0,29332;0,36032;0,54823;0,36895;-0,54423;0,37639;0,04729;-0,38375;0,93798;0,46346;0,2354;-0,41151;-0,66352;-0,28588;-0,9856;-0,53135;0,35374;-0,24505;0,92468;-0,0831;-0,51448;-0,39434;0,31369;-0,90562;-0,85233;0,43848;-0,26705;-0,86951;-0,22156;0,0965;-0,96411;-0,28342;0,8413;-0,03573;-0,93711;0,10623;-0,05178;-0,04326;-0,27377;0,26667;0,95627;0,89931;-0,31073;-0,49228;-0,48889;0,19033;0,67198;-0,18273;0,54665;0,04807;-0,15584;-0,33901;0,4947;-0,71612;-0,97545;-0,99441;-0,96043;0,3845;0,22044;-0,0997;-0,35772;-0,02236;0,85754;-0,30678;0,3134;-0,55046;-0,28961;0,43873;-0,3205;-0,22145;0,43951;-0,72153;-0,97048;-0,46379;-0,06544;-0,44431;0,76441;-0,43327;0,6269;-0,26142;0,64491;-0,96714;-0,41542;0,66844;-0,76178;0,43492;-0,00923;0,42896;-0,11342;0,98859;-0,10001;0,5606;0,72914;0,70631;-0,31973;-0,00499;-0,99966;0,93873;0,07982;0,86002;-0,46398;-0,81802;-0,86846;-0,35999;0,54202;-0,61685;-0,3824;0,01497;0,43381;0,41534;-0,92639;0,40607;0,64312;-0,51848;0,19566;-0,44667;-0,72596;-0,88758;-0,42816;0,81653;0,42808;0,25498;-0,51559;-0,40719;0,70509;0,88907;-0,35676;-0,79805;0,79838;0,82342;-0,45728;0,82472;0,36715;0,57299;-0,79945;0,4645;0,84841;0,82161;-1,05942;0,62717;-0,13715;-0,93362;0,98041;0,40236;0,79485;0,43546;0,67799;0,18525;-0,48535;-0,93482;-0,396;0,71076;0,36661;0,14672;-0,45104;0,10772;0,69327;0,43012;-0,08353;0,5246;0,71452;-0,62043;0,15889;0,50277;-0,36352;-0,83297;0,85795;-1,03011;-0,84614;0,73071;-0,29601;-0,55041;-0,88781;-0,24448;-0,04974;0,27073;0,2216;0,01489;-0,10515;-0,85025;-0,89677;0,34601;0,63132;0,67278;0,26311;-0,2298;-0,4236;-0,8313;0,12277;0,04205;0,76493;-0,53461;-0,21769;-0,64972;0,85033;-0,62636;-0,18315;-0,53667;-0,38527;0,51691;0,46165;0,70778;-0,02392;-0,22662;0,42923;-1,08338;0,48341;-0,4668;-0,8084;0,14773;0,82864;-0,51376;-0,52332;-0,45185;0,40872;-0,68974;-0,22496;0,31927;-0,82219;0,78498;0,67351;0,75422;-0,14557;0,01118;-1,09528;-0,76292;0,6786;0,60469;-0,20348;-0,43401;-0,71743;-0,1358;-0,58842;0,29861;-0,31106;-0,62646;-0,68909;-0,1497;-0,71057;0,19257;0,29037;-1,08305;-1,09576;0,90568;0,19173;0,14614;0,91324;-0,8494;-0,07761;0,48143;0,59529;0,44107;-0,83384;-0,26962;0,79425;0,76041;-0,26555;-1,02906;-0,24041;0,12853;-0,64608;0,87696;0,5038;0,44198;-0,18383;-0,03813;-0,96962;0,18312;0,97355;-0,08515;-0,91398;0,88541;0,03233;-0,12733;-0,54359;0,57671;0,61364;-0,00437;0,8126;-0,30061;-0,79792;0,33562;-0,44166;0,34692;-0,00632;-0,21785;-0,41849;0,49934;0,48083;-0,18521;0,63183;-0,71604;-0,90908;0,09777;-0,10482;0,41118;-0,59107;-0,54028;-0,03187;-0,95367;0,05262;-0,25485;-0,74994;-0,87421;0,30439;0,68859;-0,76976;0,41136;-0,7653;-0,88425;-1,03269;0,61682;-0,96684;0,92235;-0,16565;-0,10823;0,19865;-0,88382;-0,51424;0,80265;-0,67067;-0,42583;0,59021;-0,01798;0,11287;0,71303;0,73459;-0,94873;0,8065;0,16474;0,18734;0,15913;0,95673;0,68707;0,70717;0,44584;0,08682;-0,44796;-0,92873;0,28611;-0,45895;0,16944;0,2299;0,23711;-0,21981;-0,92905;-0,98676;-0,91046;-0,84547;-1,00063;-0,84552;-0,77692;0,89603;0,1638;-0,8362;-1,02786;-0,4471;-0,9855;-0,50034;0,65081;-0,62856;0,59961;0,24207;-0,35369;0,66534;-0,67825;0,43454;-0,91836;-0,33141;-0,39163;-0,35998;0,17992;0,85686;0,09522;-1,02902;-0,11982;0,74757;-0,68904;-0,60624;-0,64574;0,22296;-1,08536;0,03666;-0,83993;0,30366;0,89512;0,61611;0,1932;0,19214;-0,38045;0,84799;0,0393;-0,92445;0,38217;0,00485;-0,85742;-0,22195;-0,52426;-0,48515;0,24408;1,00207;-0,40112;-0,09756;0,63414;0,72386;-0,72517;-1,12592;0,76884;0,4247;0,19243;-0,91058;-0,87362;0,42414;-0,79719;-0,61641;-0,64327;-0,58127;0,04882;0,32264;0,67268;-0,31369;-0,74941;-0,25447;0,83538;-0,08514;0,54971;0,04095;-0,62193;-1,07526;0,83535;-0,81985;0,1109;0,64532;0,14512;-0,55654;-0,34266;0,08362;0,36291;-0,69734;-0,24177;0,7538;0,62726;0,62251;-0,966;-0,47279;0,43291;0,65239;-1,03732;-0,26508;-0,30431;0,59969;0,53572;0,07584;-0,23146;-0,53735;0,60049;0,61634;-0,15229;-0,25119;-0,83035;0,22918;0,44556;0,81729;0,66853;0,08148;-0,21442;-0,52961;-0,74639;0,62584;0,77151;0,18051;-0,10996;-0,31013;-0,60543;0,78248;-0,14744;-0,42318;-0,26303;0,25189;0,16564;0,94527;-0,12544;0,42258;0,35801;-0,81031;-0,49404;-0,87722;-0,06286;-0,62604;-0,35047;-0,12846;-0,93202;-0,4786;-0,86825;0,55063;-0,79166;0,96836;0,9607;-0,09799;0,58833;-0,05395;0,19907;-0,82728;-0,08197;0,38435;-0,45353;-0,26693;-0,60056;-0,17638;0,65699;0,06549;-0,15578;0,44417;0,49638;-0,98427;-0,71519;0,96351;-0,73131;0,32291;-0,55287;-0,1908;0,34242;0,80618;-0,0394;-0,21195;0,00474;-0,7733;-0,46253;-0,01259;0,48093;-0,00725;-0,49806;0,80699;0,56212;-0,93642;-0,43162;-0,3247;-0,50903;0,98997;0,49395;0,49402;0,41505;-0,83896;-0,23704;0,54808;0,96277;-0,43729;0,03093;-1,14338;0,10842;-0,62635;0,39998;-0,51487;-0,65569;-0,24069;0,49434;0,50354;0,02215;-0,87542;-0,84036;-0,7717;-0,77857;0,44057;0,30471;-0,32819;-0,56444;-0,1238;0,75902;0,12618;0,33133;0,38519;0,34388;-0,58875;0,84534;-0,14122;0,17001;0,17196;-0,09946;0,42073;-0,14094;-0,45903;0,11025;-0,52518;0,62183;0,08809;0,30063;-0,82592;0,42839;-0,11331;-0,56434;0,13547;0,52265;-0,64613;0,66162;0,1176;0,30894;0,93942;-0,22585;-0,94392;-0,0737;-0,11342;-0,43281;0,73972;-0,5147;0,57786;-0,13057;-0,01874;-0,53295;0,30731;0,46328;-0,71525;-0,48976;0,5105;0,06827;0,60673;-0,06036;0,59516;0,67347;-0,9923;0,13204;-0,83184;0,31436;-0,05352;-0,34501;-0,84108;0,88338;-0,01569;-0,37555;-0,16995;0,40927;0,1063;-0,70668;-0,43373;-0,60626;0,86554;0,82948;0,22016;-1,05521;-0,99106;-0,76856;-0,78869;0,54444;-0,80348;0,19598;-0,96134;-0,44829;0,91165;0,07817;-0,97485;-0,97061;0,66755;-0,84234;-0,41292;-0,05365;-0,38944;0,43568;0,58589;0,07045;-0,91003;0,75386;0,77075;-0,67013;0,65062;0,81618;-0,8142;0,83193;0,76101;0,13809;0,03218;0,6328;0,70824;0,51023;0,81109;0,82872;-0,15503;-0,39972;0,05839;0,62183;-0,65956;0,62366;-1,00583;0,6998;-0,47644;-0,34405;0,54603;-0,01614;0,72502;0,63296;0,68724;-0,7121;-0,88278;-0,88875;0,74569;-0,78332;-0,59564;0,82645;-1,12881;-0,66397;0,05958;-0,71726;-0,51095;-0,42998;-0,96624;-0,63545;-0,64253;-0,73197;-0,8205;-0,28748;-1,12566;-0,8695;-0,6663;-1,08841;-0,46356;-0,5801;0,64776;0,93319;0,82102;-0,15734;-0,89649;0,05122;-0,98073;-0,97257;0,50411;-0,28324;0,3305;0,35925;0,54038;0,42736;0,37803;0,07167;-0,54084;-0,12798;-0,43589;-0,88457;0,12948;0,14137;0,78842;-0,88772;-0,74879;0,35188;-0,22779;0,02422;0,6654;0,52633;0,86812;-0,82718;0,52649;0,444;-0,64603;-0,66741;0,92916;0,11109;-0,93166;0,87756;-0,83647;-0,53097;0,26342;-0,39925;-0,9874;-0,55778;0,45722;0,4535;0,25587;-0,37828;0,52697;0,48953;0,14237;0,89237;-0,1908;0,20437;-0,93192;-1,07777;0,54108;-0,49389;0,91211;0,90907;-0,76039;0,42553;-0,86693;0,05303;-0,33328;0,67608;-0,00045;0,19082;0,64951;0,77411;-0,96356;-0,52628;-0,57834;0,24303;-1,01807;-0,20659;0,45351;-0,53332;-0,52291;-0,48146;-0,42394;-0,34339;0,91685;-0,26916;0,59945;0,04786;-0,36173;-0,32588;0,09748;0,89574;-1,01448;0,18927;0,38149;-0,77308;0,88089;0,77411;-0,59576;-0,11932;0,67314;0,78292;-0,58089;-0,97529;-0,12397;0,7319;0,37386;-0,33252;0,49799;0,56592;0,17245;0,15898;-0,51985;0,06127;0,94221;0,30694;0,25258;0,59685;0,52701;0,32018;0,34306;0,57801;0,05208;-0,66855;-0,88773;0,74274;0,69234;-0,34994;-0,10202;-0,92114;0,2469;-0,81771;-0,59042;-0,51564;-0,22803;-0,35857;-1,09354;-0,44585;0,72479;-0,87894;0,27086;-0,12336;0,52152;0,01189;0,39936;0,75823;0,43566;-0,07697;0,28041;-0,98172;-0,0215;-0,6411;-0,75851;0,04502;0,5081;-0,94633;-0,31316;-0,85757;0,86984;0,11071;-1,02322;-0,34036;0,76807;0,25137;-0,76658;-0,01513;-0,24306;0,8563;-0,6571;0,10077;0,28784;-0,26043;0,77103;0,34547;-0,99361;-0,49544;0,87473;0,87514;-0,17324;-0,71823;-0,80594;-0,1921;0,36116;-0,19813;0,19837;-0,08437;0,83649;0,32693;-0,09682;-0,41302;0,93751;0,76057;-0,34675;-0,45637;-0,9409;-0,47621;0,06969;-0,69885;-0,24766;-0,61809;-0,09437;0,51268;-0,52018;-0,85692;-0,3073;-0,82797;-0,53692;-0,09488;0,07717;-0,12901;-0,84056;-0,26575;0,1849;0,54907;-0,15814;0,18384;0,25447;-0,13156;-0,8816;0,30078;0,10994;0,39171;-0,149;0,5916;0,13269;0,55206;-0,90709;0,14859;0,13836;0,29098;0,44194;0,62273;0,11811;-0,55453;0,30583;-0,34941;-0,87396;0,16475;-0,83714;-0,05569;-0,64733;-0,10021;-0,75823;-1,0673;-0,52022;0,07424;-0,50698;-0,00506;0,67193;-0,20371;0,25167;-0,82134;-0,82792;0,38896;0,14962;0,46131;-0,51432;-0,21243;-0,15055;0,11704;-0,90388;0,31098;0,68383;0,67839;0,40285;-0,53477;0,61291;-0,26012;-0,72819;-0,86774;-0,06011;-0,9928;-0,34879;0,07192;-0,01655;-0,78466;0,22964;-0,12494;0,18554;-0,90554;-0,02504;-0,01369;0,37621;-0,6401;-0,97883;0,19835;0,38604;0,62982;0,21195;0,7494;-0,87568;0,33856;-0,75528;0,0508;-0,23051;-0,13234;0,10511;-0,49819;-0,50302;-1,09561;0,36572;0,6516;-0,30154;0,42188;0,77911;0,15601;0,46055;-0,06206;-0,61733;-0,08322;-0,7164;0,58875;0,58634;-0,19823;-0,9232;0,03907;0,98404;0,29559;0,51471;-0,77965;-0,08034;-0,97299;0,43248;-0,57828;-1,00782;0,63705;0,71399;0,58285;-0,75741;-1,01953;0,10285;-0,43744;-0,71301;0,20019;-0,36363;0,15379;-0,7588;0,86604;-0,45861;-0,17368;0,65524;-0,57247;0,18487;-0,75015;0,43267;-0,59658;0,59683;0,50179;-0,10177;0,65169;-0,04608;0,82659;-0,14632;-0,79368;-0,07659;0,35068;-0,87421;-0,75871;0,44143;-0,93337;0,52182;0,83598;-0,35662;-0,69839;0,7603;0,56481;0,20757;-0,60449;-0,87018;-0,20652;-0,21307;-1,00364;-0,37485;-0,27441;-0,42577;-0,5001;-0,21125;0,15286;-0,04808;0,55101;-1,04988;-0,84298;-0,28241;-0,45102;0,05448;0,25652;0,7048;-0,88713;-0,88751;0,18809;0,01329;0,95415;-0,53784;-0,53466;0,24053;0,72466;0,60655;-0,10102;-0,5131;0,78321;0,07733;0,13588;0,28038;-1,02693;-0,16991;-0,17178;0,11111;-0,87565;0,60888;-0,63229;-0,43706;-0,05281;0,17929;0,74077;-0,9946;0,23312;0,1128;-0,81369;0,11976;-0,42357;0,91152;0,09667;-0,74543;-0,21267;0,84422;-0,23497;0,5546;-0,78054;0,45056;-0,19704;-0,18275;0,88395;-0,41138;0,10809;-0,62859;-0,11405;-0,23219;-0,384;0,5936;-0,7973;-0,89404;0,5321;-0,57113;0,76006;-0,72933;0,18851;0,3782;-0,14249;-0,67755;0,20164;-0,8178;0,63214;0,71418;-0,86113;-0,39777;0,42156;-0,86182;-0,77883;0,46186;0,13321;-0,57958;0,61753;0,96631;-0,26441;-0,52491;-1,10313;-0,54332;0,72515;-0,10639;-0,0976;-0,24154;-0,64316;-0,76492;0,3858;-0,22086;-0,00027;0,15649;0,29346;-0,40529;-0,19045;0,14108;0,82218;-0,14729;0,605;-0,89441;0,23362;0,00493;-0,09137;-0,30557;-0,21175;0,34939;-0,27229;0,28656;-0,82962;-0,81425;-0,9389;-0,20229;-0,36873;-0,71427;-0,69022;-0,36875;0,54293;0,94198;0,44177;-0,59489;0,63398;0,36709;-0,61331;0,34579;0,60309;-0,81999;-0,15687;0,46771;-0,44057;-0,90944;-0,49676;-0,2011;-0,7676;-0,52563;0,26976;-0,19041;0,36251;-0,00112;-0,97594;0,64527;-0,97868;0,19338;-1,06315;0,05808;-0,52741;-1,03874;-0,5176;-0,12393;-0,7171;-0,77938;0,40972;0,84805;0,40105;-0,02499;-0,54763;0,80308;-0,33221;0,52822;-0,02547;-0,47747;-0,66752;0,0059;-0,38795;-0,92345;0,67745;0,26683;-0,49145;-0,85182;0,02678;0,40382;0,15039;-0,53094;0,83791;0,73778;-0,56015;-0,50463;0,20711;0,19562;-0,20276;0,59978;0,57464;0,93736;0,16651;-0,79662;-0,54546;-0,32979;0,23491;0,11097;-0,96442;0,34999;-0,81539;0,89014;-0,94932;0,27007;0,14952;-0,1382;-0,58364;0,72976;0,43133;0,23551;0,30273;-0,62321;0,86743;-0,25191;0,02182;-0,1761;0,87448;0,60725;-0,47783;0,87577;-0,50734;0,35037;-0,44143;0,27958;-0,10494;-0,55477;0,86078;-0,7224;0,51895;-0,1219;0,94073;0,40917;-1,09463;0,51017;0,22225;0,32806;-0,64154;-0,47467;-0,46453;0,49546;-1,00403;0,3262;0,83558;0,60969;-0,87704;0,20933;-1,00722;-0,6783;0,13589;0,54645;-0,42343;0,55078;-0,4375;-0,84941;-0,20154;-0,25851;0,06591;-0,24269;-0,58259;-0,31069;-0,11356;-0,94143;-0,79606;-0,64664;0,15193;-1,02343;-0,71033;-0,81497;0,43174;0,67003;-0,71988;0,41023;-0,00911;-0,07341;0,87861;0,03355;0,38939;-0,09485;0,12415;0,64712;-0,6411;0,30622;0,05516;0,79112;-0,80388;-0,83224;-0,24882;0,78889;-0,29159;-0,51396;-0,92808;0,67083;-0,97955;0,76771;-0,46168;0,93641;0,10049;0,32717;-0,6582;-0,83633;-0,21469;0,77827;-0,16323;0,53602;0,23132;0,17624;-0,40677;0,57404;-0,70984;0,58685;0,23996;-0,89846;0,57023;-0,37582;-0,74966;0,46318;-0,19374;-0,65047;-0,84772;-0,15485;0,18466;-0,49662;0,2988;-0,14777;0,54888;-0,38182;0,30536;0,05205;-0,78728;0,76524;0,82964;0,93547;-0,44061;-0,12631;-0,25728;-0,54091;-0,56992;0,56849;-0,46223;-0,03883;0,64048;0,14019;0,46742;0,13758;0,07493;0,8464;-1,05209;0,21962;0,58042;0,06067;-0,00593;-0,29917;0,25347;0,38588;-0,01119;-0,69953;-0,66683;-0,99094;0,86191;-0,56884;0,80166;0,32622;0,21196;-0,58526;0,63492;0,24428;0,51011;-0,34845;0,83221;0,59201;-0,06023;0,2465;0,71784;0,0855;0,15347;0,97329;-0,04216;-0,78918;0,803;0,50723;-0,49798;-0,9983;0,47631;0,12528;-0,18754;0,17032;-0,35476;0,16994;0,79825;-0,56578;-0,92701;-0,67169;0,59376;-1,07766;0,11917;-0,76551;0,79321;0,00188;0,25369;0,61169;-0,59513;0,33569;0,35449;0,8373;-1,04178;0,72986;-0,10821;-0,89226;-0,93049;0,02794;0,28191;-0,90207;-0,82112;-0,64838;0,93689;0,67062;0,70707;-1,00148;0,52702;-0,42923;-0,30434;-0,83579;-0,27283;0,25643;0,64999;-0,42491;0,60576;0,62981;0,83661;-0,13369;-0,99847;0,871;-0,17368;-0,95984;0,03308;0,116;-0,39555;0,6207;0,18164;-0,07034;-0,9571;-0,56714;-0,0533;-0,21156;0,24646;0,72649;-0,71613;0,2648;-0,98781;0,43636;-0,63607;0,9023;0,39333;-0,27097;0,05317;-0,82568;-0,47586;0,91192;-0,80857;0,26269;-0,97553;0,1857;-0,72216;0,0786;-0,14181;0,33141;0,31049;-0,95933;0,1434;-0,35238;0,04429;0,44528;0,77053;-0,13149;0,29735;0,36009;0,04831;0,10829;-0,338;-0,9209;-0,01917;-0,81252;0,11182;0,55957;0,34911;-0,06905;-0,47696;0,32153;-0,02134;-0,97991;0,51962;-0,12964;-0,49683;-0,16652;-0,53363;0,11136;-0,69188;-0,52214;0,72314;-0,16383;0,0029;0,51683;0,52456;-0,91175;0,34287;0,43668;0,02836;-0,15835;0,22888;0,23717;-0,21001;0,70122;0,83076;-0,70818;0,25491;0,7409;-0,37049;-0,97201;-0,25285;0,48826;-0,48157;-0,48274;0,08462;-0,61912;0,11435;-0,24726;-0,0539;-0,07552;-0,6286;-0,8082;0,05702;-0,43959;0,37873;0,8181;0,06763;0,45503;-0,34339;0,00332;-0,78655;0,92207;0,86828;0,67164;-0,92349;0,725;0,22028;0,80038;0,02843;-0,7956;0,57423;-0,2706;-0,53183;-0,73691;0,70073;-0,76111;-0,67427;-0,51062;-0,57713;0,12154;-0,03531;-0,4392;-0,53213;-0,91657;-0,55189;0,04465;-0,81596;-0,78785;-0,66875;-0,98184;0,19714;0,79921;0,09228;0,62198;0,81273;-0,17765;0,59429;-0,16975;-0,56706;0,35275;0,15643;0,32188;0,73967;-0,27684;0,34456;0,64941;0,71209;-0,20368;-0,148;0,13207;0,48666;-0,41498;0,03627;0,51598;-0,96486;0,64642;0,45282;0,77293;0,21795;0,03407;0,53619;0,00039;0,4874;0,00607;0,02462;0,76838;0,63118;-0,16574;-0,55704;-0,12248;-0,36504;0,4763;-0,94447;0,06241;0,96936;0,64857;-0,16936;0,73676;-0,26269;-0,19929;0,31981;0,38416;0,35522;0,19677;-0,48177;-0,39193;-0,25559;0,57849;0,5898;-0,81721;0,37964;0,8112;0,60697;0,39015;0,80132;-0,85035;0,84415;-0,27502;0,69849;0,5818;-0,99113;-0,10872;-0,64245;0,95896;-0,49408;-0,99331;-0,47314;0,95756;0,53529;-0,60565;-0,20255;0,69794;0,03553;-0,59175;0,70277;-0,86866;0,64025;-0,7174;-0,52273;-0,59042;0,01393;-0,92926;0,23266;-0,74632;0,49741;-0,19018;0,86355;-0,35222;0,24969;0,82733;0,79689;-0,90384;-0,9507;0,14976;-0,20814;-0,56815;0,038;0,40635;-0,32486;-0,48625;-0,93978;-0,2201;-0,98806;0,21027;0,36471;0,67025;-0,23027;0,18673;0,68076;0,67282;-0,4871;0,54508;-0,75047;0,28374;-0,45061;0,92813;0,64557;-0,91377;-0,53268;0,68489;-0,85304;0,87179;-0,29512;0,69599;-0,43732;-0,29674;0,65761;0,88306;0,60753;0,26478;0,09918;-0,75087;0,58726;0,96601;-0,66034;-0,76665;-0,95635;-0,97148;-0,12229;0,8211;-0,96938;-0,33294;-0,03288;0,5854;0,32029;-0,74683;0,83985;-0,25147;-0,39993;-0,13866;-0,22937;-0,05593;-0,07027;0,01325;-0,6382;-0,80331;-0,94983;-0,70112;-0,36975;-0,33059;-1,00057;-0,10952;0,57036;-0,59969;-0,43728;-0,73162;0,95883;-0,70735;-0,06426;-0,69462;0,88316;0,61161;0,20879;-0,36596;0,64711;0,44835;-0,08338;0,1157;-0,60709;-0,70159;-0,15329;-0,08344;0,2657;-0,25686;-0,5054;-0,84689;0,29897;-0,43145;0,5854;-0,84771;-0,81375;0,73519;0,41005;-0,79787;0,81311;0,14384;0,08852;-0,45254;0,01998;0,04553;-0,71788;0,54416;0,81281;-0,72567;-0,03891;0,15977;0,74045;-0,70697;0,35867;-0,08995;0,27007;-0,06691;0,91306;-0,68021;0,80502;0,08405;0,60366;-0,17985;0,90441;-0,57869;-0,03996;0,37634;-0,29607;-0,23442;-0,86129;-0,84429;-0,79894;-0,007;-0,18874;-0,51186;-0,64031;-0,65864;-0,893;0,34413;-0,98989;0,2966;0,10302;-0,00193;0,78423;0,31108;-0,60228;-0,00319;0,20945;-0,32165;-0,12455;0,24369;0,82005;0,06315;-0,60389;-0,26241;0,52384;-0,73881;-0,35227;-0,38965;-0,92173;-0,08571;-0,14638;0,03319;-0,86337;-0,19222;-0,04973;-0,25038;0,46445;-0,1549;-0,47103;-0,06621;-0,17336;-0,43473;-0,67709;-0,49213;0,98142;-0,38226;0,04713;-0,40697;-0,99591;0,96782;-0,84826;-0,98211;0,88688;-0,12499;-0,66378;0,13121;-0,40058;-0,92368;-0,02821;-0,90036;0,70072;0,47943;0,25556;0,1041;-0,53974;-0,94295;-0,1587;-0,0344;-0,64456;-0,5938;-0,64313;-0,82867;0,72328;-0,82303;-0,29581;-1,02912;0,6514;-0,74248;0,69978;0,62575;-0,41294;-0,06572;-0,69205;-0,68616;0,67642;-0,91702;-0,85602;-0,92565;-0,74549;0,13114;-0,08472;0,10529;0,1481;0,24127;0,55452;-0,8623;-0,03427;0,3067;-0,40486;-0,75435;-0,94645;-0,1857;0,38943;-0,93579;0,0604;-0,51427;-0,48881;0,56342;0,9254;0,20933;-0,63942;0,37103;0,40771;-0,21429;-0,68164;-0,30383;-0,24188;0,68264;-0,24762;-0,28185;0,90216;0,7509;0,44257;0,07976;0,41393;0,18122;0,01522;-0,58406;-0,34955;-0,47917;-0,02601;-0,73583;0,68178;0,37909;0,51529;0,68502;0,54058;-0,80704;0,19538;0,27528;0,52593;-0,36628;-0,8867;-0,04501;-0,31735;0,56514;0,60434;-0,71117;-0,12403;-0,1572;0,40517;0,20734;-0,39525;0,86348;-0,83147;-0,88116;0,28007;-0,85856;-0,37834;0,85063;0,32198;-0,83198;-0,11314;0,24973;-0,79025;-0,93158;0,61442;-0,97463;0,20002;-0,45787;0,08661;-0,56761;-0,59571;0,48395;0,18702;0,27442;0,63493;-0,52565;-0,56998;0,90088;0,4073;-0,35481;0,47652;0,79627;0,11516;0,65993;0,57291;0,75981;0,11467;0,3915;-0,6873;0,27524;0,55831;0,22293;0,76835;0,32508;0,62558;-0,27222;-0,16704;-0,38924;0,83947;0,65143;0,14496;-0,82902;0,60798;-0,14165;-0,22601;0,00877;-0,32119;-0,09829;-0,5752;-0,12153;0,78493;-0,33699;-0,57346;-0,38109;-0,43231;0,06234;-0,92396;-0,5406;-0,62384;0,76645;-0,27426;0,77825;-0,7666;0,83302;-0,13405;0,13404;0,64819;0,71536;0,63791;-0,1538;0,64294;0,72578;-0,99462;0,83005;0,43702;0,23012;-0,89567;-0,7531;-0,10654;-0,51345;0,13727;-0,72688;-0,17586;0,48264;0,42976;-0,06939;-0,24438;0,05711;-0,36891;-0,4871;-0,31871;-0,62185;-0,85945;-1,0846;-0,24766;0,34342;-0,97078;0,82856;-1,04409;0,56571;0,36254;-0,22166;0,18076;0,6124;0,15629;0,97563;-0,42488;-0,41957;0,09206;0,40268;-0,09161;0,78428;0,45319;0,84949;-0,32666;-0,577;-0,16061;-0,28273;-0,69074;0,81374;-0,62231;-0,59277;-0,00603;0,0056;-0,87124;0,2631;0,58478;-0,97134;-0,05595;-0,93405;0,19519;-0,75843;-0,71328;0,31624;0,0154;-0,79193;0,01226;0,23051;-0,78232;0,4632;-0,72705;-0,79242;0,95571;0,31662;0,52056;-0,17298;-0,13788;-0,82452;0,23323;-0,73732;-0,61551;0,22039;0,45594;-0,98348;0,1288;-0,10586;0,74784;-0,82289;0,45371;0,93177;-0,75892;-0,51698;0,59214;-0,00075;-0,85337;-0,32266;0,49175;-0,93022;-0,28515;-0,61816;0,38416;0,63216;-0,63728;-0,20591;0,51185;-0,80023;-0,49952;0,67546;0,43377;0,23997;-0,62263;0,42254;-0,34186;-0,42898;0,64559;0,82336;-0,25631;-0,8164;-0,81036;-0,9167;-0,57005;-0,17148;0,74926;-0,72579;0,15688;0,82051;-0,4955;-0,1587;0,14009;-0,1211;0,28025;-0,30044;0,39044;-0,1476;-0,13745;-0,30414;-0,20439;-0,36518;-0,52295;-0,12637;-0,64112;-1,01636;-0,28782;-0,87823;0,52715;-0,1446;0,74667;-0,13664;0,23633;-0,82951;0,83352;0,24804;0,87164;-0,36437;0,83593;-0,3625;0,88122;-0,87064;0,51313;0,63362;0,54687;0,51781;-0,42913;-0,5012;-1,0863;0,60953;-1,07117;0,70588;0,73541;-0,11028;0,0045;-0,89545;0,60728;0,22116;0,65366;-0,58862;-0,95062;0,65728;-0,26649;-0,6248;-0,99235;0,64417;0,60663;-0,17257;-0,12837;0,98205;-0,16171;-0,21767;0,0705;-0,81755;-0,15719;-0,30491;0,13787;-0,16349;0,26317;-0,27717;0,36747;-0,87007;-0,94134;0,9131;-0,17772;0,96761;0,05702;-0,66131;0,13153;0,72299;0,65682;-0,39282;-0,19027;0,30131;-0,5064;-0,8395;0,38429;0,09506;0,69115;0,93296;0,90911;0,74455;0,55744;-0,98124;-0,2755;0,16756;-0,28082;0,57005;-0,92918;-0,71121;-0,04272;-0,22698;0,87174;-0,07919;0,0811;0,74142;0,45552;-0,24022;0,51606;-0,983;-0,50557;0,23293;0,65501;0,46343;-0,061;0,59679;-0,85034;0,01937;-0,5177;-0,09057;-0,36637;-0,47541;-0,5276;0,17504;-0,82182;-0,69073;0,37159;0,63545;-0,07023;-0,15428;0,39688;-0,87222;0,18697;0,45406;0,54227;0,56106;0,88238;0,46732;-0,15185;0,76312;-0,89435;0,82096;-0,7001;0,00288;-0,41933;0,61338;0,44309;-0,26192;0,2691;-0,81853;0,81011;0,8231;0,06048;-0,1096;-0,0196;-0,50659;0,6442;0,88831;-1,02843;0,36147;-0,18517;0,85095;-0,09876;0,10386;-0,18433;0,22678;0,86923;0,38807;-1,0456;0,46893;0,71569;-0,24202;-0,71723;-0,43953;-0,38039;-0,30604;-0,61191;0,46028;-0,51087;-0,55055;-0,1571;-0,38894;-0,4124;-0,18592;-0,02592;0,47731;0,02925;-0,79377;-0,7106;-0,17719;0,70312;-1,16483;0,322;0,47025;0,16793;-0,79555;-0,17152;0,23974;-0,9517;0,20784;0,70804;0,8433;-0,25043;0,71778;-0,79843;0,4175;0,67049;-0,64466;-0,92757;-0,72677;-0,96412;-0,72111;0,30378;0,55854;-0,51017;-0,73433;0,27668;-0,90447;0,87782;0,23107;-0,75511;0,64473;0,11893;0,25956;0,50939;0,72071;0,29191;-0,09907;0,38706;-0,60374;0,8057;0,03333;0,28482;0,27834;-0,29827;-0,15414;0,75677;-0,26637;-0,58278;0,57885;0,85303;-0,44817;-0,84337;-0,78092;-0,31818;0,51683;-0,31973;0,61373;-0,07162;-0,1065;-0,06318;-0,35019;0,30808;-0,25369;-0,02437;-0,89736;-0,34924;0,58508;-0,85524;-0,43966;0,83047;-0,18292;-0,13022;0,70732;-0,67047;-0,00891;-0,16276;-0,93044;-0,10964;0,59617;-0,64991;-0,44694;0,71627;-0,78671;0,46521;0,63728;0,56127;-0,13166;-0,7763;-0,91468;-0,06481;0,60475;0,87119;-0,41894;0,29912;-0,00602;0,76837;-0,39386;-0,85235;-0,34523;-0,85472;-0,79669;-0,48558;0,80189;0,6283;0,0148;0,7256;-0,58007;0,9198;0,51767;-0,43724;-0,30302;-0,20616;0,39793;-0,57672;-0,77438;-0,0442;0,00544;0,20034;0,49242;-0,38218;0,83824;0,28072;-1,02544;0,48811;-0,64119;-0,24329;-0,70775;-0,83982;0,17775;0,40155;-0,91753;0,73721;-0,73648;0,35334;-1,024;-0,99178;0,72327;-0,59352;-0,52545;0,79021;-0,07051;0,02157;-0,23719;0,4005;-0,69993;-0,2389;-0,52846;-0,97272;0,02656;-1,03958;-0,35648;0,32489;-0,28859;0,86137;-0,72557;0,00156;-0,46647;-0,64889;0,37592;-1,00932;0,45041;-0,93487;-0,55548;-0,78147;-0,6806;-0,10927;-0,49217;-1,00279;-0,67891;-0,6842;0,02794;-0,28628;-0,23741;0,58776;0,70313;-0,22797;-0,82614;-0,39074;0,11894;0,50242;-0,5294;-0,85683;0,21892;0,17851;-0,42218;-0,20187;0,01426;-0,79741;-0,16891;0,01028;0,51508;0,55989;0,03757;-0,64315;-0,68715;-0,15473;-0,41689;-0,57767;-0,01399;0,39779;-0,82428;-0,67082;0,62101;-0,15664;-0,06967;-0,91236;-0,47427;0,24441;-0,82202;0,55702;-0,27317;0,79735;0,03538;0,78867;0,58996;0,37095;-0,16621;0,26384;0,6641;0,53446;0,66195;-0,75091;-0,01119;0,09384;-0,40127;0,62686;0,48813;-0,53;0,15673;-0,14379;-0,85609;0,74717;0,52728;0,50943;0,25418;-1,15157;-0,70262;-0,6137;-0,6214;-0,6024;-0,68557;0,86265;0,92578;0,1731;-0,70389;0,57927;-0,80337;0,28308;-0,24233;-0,05628;0,95321;0,2659;-0,25708;0,31204;0,60183;0,79874;0,16865;-0,6688;-0,94584;0,06431;-0,42864;-0,95302;0,92418;0,45075;0,45144;-0,05646;-0,70141;0,44274;-0,62994;0,49803;0,0894;-0,41713;-0,11061;0,39724;0,185;0,88993;-0,58528;0,83255;-0,07511;0,09765;0,32199;-0,88686;0,79102;-0,90129;-0,0921;-0,17657;0,03014;-1,0814;0,90614;0,43692;-0,10636;0,87368;-0,6023;0,19309;0,84491;-0,74253;0,85424;-0,54403;0,77107;0,39316;0,38898;-0,15267;-0,16998;0,19084;-0,93651;0,4098;-0,58829;0,55326;-0,79633;0,83076;0,40936;0,23864;0,46819;-0,13922;0,88861;-0,49433;-0,93086;0,85395;-0,55743;-0,43057;0,85431;-0,85287;0,49482;0,07398;-0,53429;0,49208;-0,06272;-0,4277;-1,05028;-0,82982;0,77925;0,62184;-0,25552;0,12789;-0,42392;0,716;0,65893;-0,6408;0,07888;-0,85485;0,73805;-0,36747;-0,8195;0,79776;0,60652;0,88931;0,77588;-0,42606;0,61753;-0,89197;0,51644;0,41795;-0,62004;0,81279;0,73088;0,10571;-0,56985;0,49364;0,40282;0,20425;0,79553;0,22174;-0,76558;-0,8037;-0,73069;0,46425;0,63529;0,86738;-0,13662;0,86555;-0,95764;-0,17863;-0,92731;0,2786;0,1341;0,6756;-0,367;-0,75493;0,89482;-0,493;0,67918;-0,64328;-0,14171;0,88083;-0,41664;-0,75833;0,12782;-0,07666;0,38088;0,39388;0,20644;-0,82013;-0,14605;0,80928;-0,56292;-0,52219;-0,58175;0,95574;0,40337;-0,93649;-0,74211;0,81531;0,58007;0,76686;-0,91798;-0,24412;0,27525;0,1199;-0,38803;0,8143;-0,73937;-0,94487;0,43029;-0,09021;0,55797;0,20686;-0,56833;-0,63495;0,42036;0,96612;-0,76189;-0,37736;-0,53303;0,41499;-0,47909;0,76795;0,78321;-0,8047;-0,16879;-0,30422;0,24362;-0,35666;-0,2251;0,81012;-0,70705;0,68693;-0,2502;0,06315;0,75935;0,79316;-0,12096;0,86265;-0,73461;0,43523;0,10466;0,00705;-0,3559;-1,06008;-0,82686;0,00901;-1,01834;-1,04613;-0,6796;0,52317;0,81551;0,53837;0,42817;-0,77517;0,00269;-0,86315;-0,13112;0,05978;-0,77693;0,92328;-0,43298;0,48037;0,31906;0,69048;-0,45204;0,84278;-0,60317;0,21962;-0,5065;0,56848;-0,0101;-0,76987;-0,74181;-0,17414;-0,74741;0,51979;0,19838;0,80981;-1,08214;0,72128;-0,49613;0,26479;-0,67993;0,2095;0,88671;-0,28283;-0,66694;-0,51063;0,95537;0,57824;-0,11408;0,73621;0,52936;-0,58769;-0,04234;0,48924;0,76445;-0,16279;0,43148;-0,75596;-0,50775;-0,36737;0,42208;-0,24904;-0,43454;0,46866;0,06517;-0,6214;0,97614;0,57899;-0,03258;-0,02833;0,06801;-0,47168;0,1783;0,14879;0,27249;-1,02863;0,72377;0,73937;0,50248;0,82958;0,31953;-0,2114;-0,39836;0,05238;-0,39613;0,87448;0,86626;-0,34931;0,72286;-0,73161;-0,73901;0,66225;-0,0135;0,76341;0,78077;0,44807;-0,33058;-0,59902;0,56924;0,78751;-0,49028;-0,62168;-0,42587;0,92843;-0,3058;-0,07767;0,04325;0,63898;-0,75843;0,58202;0,16295;0,63379;-0,13942;-0,39977;0,37383;-0,45643;-0,92329;0,38683;-0,31115;0,15294;-0,55541;0,15555;0,74089;-0,34555;-0,42943;0,39896;0,41897;0,3739;0,43262;0,71509;0,317;0,12803;-0,94557;0,60117;0,3391;-0,06577;-0,79501;-0,32808;-0,7193;0,57598;-0,22959;-0,83845;-0,6643;-1,0129;0,01594;-0,42291;-0,19046;-0,55739;-0,63368;0,14833;0,33463;0,21845;0,7285;-0,70323;0,26003;0,21858;-0,60081;0,87871;0,25312;0,32275;0,45872;0,64502;-0,76701;-0,4497;-0,73291;-1,08314;0,6325;0,09769;0,19959;-0,56438;-0,70553;0,29952;0,04865;0,05524;-0,6001;-0,78531;-0,29301;0,74901;0,56137;-1,0706;-0,47782;-0,0271;-0,09412;-0,80133;-0,75095;-0,94852;0,45341;0,69108;-0,789;-1,06719;-0,68263;-0,80533;0,29327;-0,05012;-0,8887;0,01975;-0,95615;0,82959;0,71818;0,01326;-0,10479;0,50009;0,02805;-1,02399;-0,23231;-1,02005;-0,82299;-0,48042;0,72447;0,02559;-0,56368;-0,36169;-0,68712;0,24316;-0,27428;-0,60094;-0,29489;0,92815;-0,71679;-0,81386;-0,47757;0,8699;-0,0639;0,22439;0,8941;-1,01681;0,92395;-0,92127;-0,02885;0,41584;-0,88537;-0,11905;-0,97902;-0,40754;0,00864;-0,11817;0,80763;-0,14421;0,33464;-0,87409;0,8687;-0,21688;0,89022;0,0121;0,4331;0,62172;0,86772;-0,88743;-0,82066;0,51012;-0,85728;-1,03468;0,49391;0,47193;-0,64941;0,06513;-0,34551;0,8025;-0,96578;-0,28014;-0,88353;-0,97143;0,52138;-0,62359;-0,02881;0,60208;-0,43042;0,67389;-0,89124;0,7581;-0,47877;0,86687;-0,56175;-0,992;-0,83409;0,7318;0,88398;0,8023;0,76684;-0,74938;0,49244;-0,91878;-0,68303;0,00212;-0,16576;-1,10068;-0,34128;-0,39791;-0,03313;0,8235;-1,01814;0,26386;0,05913;0,38112;-0,51343;0,37545;-0,4593;0,85505;-0,76481;-0,4507;0,81052;-0,6526;-0,8491;0,23614;0,84023;0,35497;0,28111;-0,37575;-0,0415;0,4483;-0,52912;0,63224;0,23628;0,54417;-0,91489;0,27712;0,35719;-0,37703;-0,44323;0,33232;0,76796;-1,03113;-0,23152;-0,92491;0,92506;0,58631;-0,28409;-0,17686;-0,73029;0,49963;0,32865;-0,44194;-0,93271;-0,34854;-0,74028;0,02819;0,91666;0,03628;0,05136;0,4671;-0,41892;-1,06903;0,55261;0,53327;0,33604;-0,69261;-0,98867;0,5147;0,15766;0,12153;-0,94779;0,89925;0,31682;-0,16184;-0,37618;0,79651;0,5561;-1,05556;0,20189;-0,80068;-0,31143;-0,53047;-0,62881;0,43227;-1,00858;0,63163;0,29109;-0,5681;0,12252;0,0542;0,43742;-0,85098;0,54695;0,00467;-0,49069;0,84504;-0,69664;0,15996;-0,29669;0,52347;0,50606;0,10525;0,47117;0,0689;0,46134;0,45224;0,23423;0,16359;0,95038;-0,49874;0,51144;0,79502;0,81841;-0,18615;-0,29709;-0,84481;0,50697;-0,95875;0,49759;0,5538;-0,02035;0,38759;-0,69801;-0,89558;0,55317;0,62512;-0,62442;-0,89391;-0,88697;-0,13479;0,42173;-0,6449;0,31195;0,72655;-0,58552;0,40781;-0,15735;0,2649;0,82008;-0,45228;-0,59943;-1,00857;-0,48716;-0,32831;0,45249;0,54416;-0,70909;-0,4278;-0,78526;-0,66667;-0,74421;-0,84662;0,51951;-0,12769;-0,50143;-0,83601;-0,11833;0,28623;0,30579;0,75911;-0,10015;0,09968;0,04378;-0,05307;-0,06762;0,05039;-0,41369;-1,03475;-0,64876;0,25746;0,19232;-0,77551;-0,9424;0,00609;0,28313;-0,1246;-0,12314;0,53416;-0,35659;-1;0,20634;0,61443;0,85843;0,79509;-0,3384;0,1315;-0,36424;-0,82147;0,26163;-0,64782;-0,46259;0,47348;0,83512;-0,9125;0,37411;0,15827;0,0293;0,39047;0,5986;-0,71187;-0,11725;-0,80524;-0,69464;-0,27466;0,03793;0,90704;-0,94858;-0,56521;0,58666;0,59713;0,25108;0,23297;-0,52795;0,23398;-0,7274;0,14385;0,10969;0,10667;-0,61124;0,81858;-0,61433;-0,7692;-0,29757;0,91212;-0,28175;0,7372;-0,57466;-1,10666;0,41999;-1,01525;0,73783;0,33777;-0,94773;-0,69548;0,18949;-0,05454;0,3656;0,09202;-0,29469;-0,34852;-0,02376;-0,88965;-0,48169;0,57205;-0,00268;0,26012;-0,18009;-0,50447;0,7555;-0,84611;-0,97444;0,8432;0,02697;0,56786;0,83831;-0,38604;0,48219;-0,7063;-1,0961;0,20859;0,39838;-1,01553;-0,05284;0,54923;0,74714;0,73121;0,10535;-0,9096;-0,8848;0,33645;0,71319;-0,99875;-0,59026;0,63117;-0,09927;-0,94324;0,57243;0,0337;-0,3157;0,50343;-0,23288;0,81562;-0,8426;0,28189;0,93707;0,93662;-0,70924;-0,7157;-0,45976;-0,60126;0,33852;0,08367;-0,00155;0,34801;0,21749;-0,14238;0,15617;-0,10883;0,7605;0,17755;-0,93979;-0,34553;-0,686;-0,67781;-0,65172;-1,04389;0,33773;0,31093;-0,30084;0,69931;-0,15225;-0,73273;0,40854;-0,64456;-0,68724;0,50121;0,8467;0,57749;0,71732;0,79036;0,45946;-0,24872;0,50448;0,50592;0,78274;-0,36122;-0,11438;-0,0219;-0,60134;0,81282;-0,2702;-0,26333;0,26014;0,47741;0,37489;-0,97602;0,45369;0,81604;-0,16508;0,85062;-0,40332;-0,08538;0,54234;-0,20734;0,57461;0,07961;0,42177;-0,49781;-0,08723;0,63844;0,08454;0,60037;0,02291;0,8914;0,64247;0,34159;0,1364;-0,3125;-0,66259;0,57195;-0,07055;-0,82447;-0,13968;-0,21325;-0,18222;-1,01436;-0,00523;-1,13687;-0,03929;-0,65496;-1,1267;0,85132;-0,38755;0,69747;0,15141;-0,44574;-0,04449;-0,2232;-0,99779;-0,26393;0,18935;-0,75253;-0,83814;-0,3413;-0,28436;0,21079;0,678;0,34015;0,68941;-0,96866;-0,25636;-0,30201;0,33917;0,2921;-0,22816;-0,737;0,92568;-0,22291;0,82125;0,45672;-0,96515;0,54908;-0,42489;-0,29379;0,76629;0,43088;0,77921;0,694;0,52349;0,67918;0,27843;-0,43448;0,44321;-0,18191;-0,5662;-0,51606;0,83602;-0,33583;0,43978;0,11358;-0,70898;0,37978;-0,91182;-0,12802;-0,48601;0,90431;-0,96629;-0,29082;0,08979;0,83561;0,55608;-0,00827;0,19408;-0,84185;-0,9016;0,58562;-0,14715;0,3861;0,04091;-0,95401;-0,12635;-0,53237;0,35374;-0,46211;-1,0505;-0,7007;-0,04548;0,37642;0,41258;-0,09132;-0,53503;0,75847;0,64899;0,49709;0,55497;0,06157;-0,30883;0,71212;-0,90403;0,77403;0,33878;0,13166;-0,38597;0,64569;-0,92718;-0,77627;0,45155;0,32327;-0,23939;-0,16633;0,5982;-0,63141;0,61644;0,38088;-0,77856;0,71291;-1,09812;0,57811;-0,08392;-0,90981;-0,14758;-0,37137;0,2627;-0,84744;0,45552;0,72768;0,37875;0,52429;-0,56582;-0,14482;-0,16484;0,19761;0,24933;0,1704;-0,29938;0,72329;0,65742;0,72355;-0,55879;0,63684;-0,06793;0,63108;-0,45158;-0,46789;0,24745;-1,08632;-0,90993;-0,82515;0,34803;0,81239;0,13073;0,19141;-0,24487;-1,04422;-0,13497;-0,38045;0,84322;-0,48561;-0,8695;-0,77104;-0,20949;0,75741;-0,11121;0,80992;-1,09669;-0,60513;0,10018;-0,70177;-0,22422;-0,70049;-1,03775;-0,77995;0,02941;0,21052;0,16359;0,23506;0,88647;-0,37469;-0,14891;0,36092;0,46122;0,17394;-0,81483;-0,43122;0,74473;0,62132;-0,67999;0,2353;-0,76103;-1,08191;0,96436;0,11605;0,47224;-0,86665;-0,23786;-0,02318;-0,30806;-0,19224;-0,47069;-0,16517;-0,24955;0,76583;0,38066;-0,02824;0,74486;-0,18898;-0,94003;0,45584;-0,15445;0,49998;-0,27805;0,05657;0,59863;-0,28718;-0,33199;0,6125;0,58185;-0,79109;-1,0354;-0,70496;-1,08303;0,84407;-1,0187;-0,34177;-0,63306;-0,14083;-0,24795;-0,22382;-0,73371;-0,97548;-0,4475;0,10431;-0,89321;-0,96419;-0,41062;0,66625;0,64653;0,19642;-0,15684;-0,1332;0,47288;-0,15766;-0,61213;-0,37981;0,22333;-0,28221;0,51778;-0,29408;0,45876;0,10577;0,39432;-0,4978;-0,23859;-0,83722;-0,2795;-0,10632;0,61503;-0,41874;-0,54139;-0,14657;-0,90313;0,2607;0,10685;-0,33589;-0,08139;0,43348;0,01273;0,52203;-0,82076;-0,09734;0,87716;-0,70666;0,29425;0,0883;-0,13079;0,03311;0,51541;0,30125;0,43409;0,62081;0,23927;0,94722;0,2404;0,15304;-0,38448;-0,93065;-0,68448;0,89512;0,1179;0,54394;-0,9395;0,01343;-0,36558;0,99173;-0,29426;-0,99741;0,64981;0,58775;0,67808;0,6858;0,68142;0,82602;-0,46714;-0,53017;0,15733;-0,00674;0,1528;0,5361;0,20316;0,63949;0,3911;-0,748;0,11072;-0,07573;0,52672;-0,87855;-0,94014;0,92862;-1,01178;-0,10367;0,05393;0,12261;-0,65679;-0,56348;-0,08035;-0,16462;0,6394;0,27051;-0,77664;-0,30256;0,44505;0,78366;0,5585;0,73076;0,77764;0,32872;0,31018;-0,31846;-1,0374;0,5674;-0,22076;-0,2941;-0,45381;0,43253;-0,86066;0,642;0,74696;0,78589;-0,59222;-0,34232;-0,97062;0,74511;0,50997;-0,35491;-0,46786;-0,3934;0,40101;-0,95573;0,56376;-0,85987;0,43608;0,77814;0,26262;-0,58475;-0,86431;0,59487;-0,37484;0,3676;0,0529;-0,94686;-0,35208;0,19149;0,79199;-0,58146;-0,87928;-0,67303;-0,54547;-0,22954;-0,75063;0,16587;0,02083;0,8232;-0,08918;0,61828;-0,33509;0,71249;-0,77672;-0,07822;0,02842;0,10379;0,9332;0,26544;0,20701;0,83791;-0,98965;-0,12061;0,36814;-0,87019;0,2899;-0,45064;-0,08905;-0,63667;-0,42407;-0,72798;0,94573;-0,26515;0,78541;0,05384;-0,43684;-0,79675;-0,9109;-0,45904;0,69375;-0,76254;0,08832;0,48952;-0,12994;0,66233;0,65797;-0,47794;0,32244;0,69625;-0,6362;0,83788;-0,80496;0,33472;-1,04586;-0,94485;-0,63278;0,10982;-0,13475;-0,62288;0,46477;0,61262;-0,75858;-0,27436;0,14022;-0,33968;0,66191;0,85409;0,8696;0,11072;-0,70043;-0,15463;0,60513;0,29633;0,14044;0,84387;-0,32951;0,41793;-0,53784;-0,33852;0,53474;0,32653;-0,06749;-0,63607;0,80004;0,48898;0,30615;-1,10421;-0,74295;-0,65102;-0,65476;-0,84992;-0,64346;0,34073;-0,21105;-0,38847;-0,73593;-1,01344;-0,2307;0,13182;-0,87576;-0,38309;0,94232;-0,31434;-0,19386;0,62926;0,57192;0,51189;-0,32691;0,35973;0,24267;0,5967;-0,15516;0,10519;0,09398;-0,48737;-0,98255;0,09408;-0,95114;-0,07453;-0,34022;-0,93517;0,86265;-0,61648;-0,0075;0,4614;0,06779;-0,78527;-0,59303;-0,54045;0,54687;-0,27159;-0,35584;0,24725;-0,4878;-0,18691;0,40225;-0,72071;0,47091;-0,83928;0,91491;0,74434;0,23685;-0,09518;0,11883;-0,34575;0,12923;0,2578;-0,7249;-0,78405;-0,51488;0,05717;0,8431;0,85058;-0,54833;-0,9723;-0,2602;0,33342;0,4631;0,24049;-0,56261;0,33597;0,05674;-0,84511;0,82858;-0,55269;-0,24778;0,59664;-0,44112;-0,83811;0,13274;0,73809;0,54025;0,89605;-0,13999;-0,19584;-0,21179;-0,04039;0,2726;-0,70012;-0,67336;0,87575;0,92194;-0,92317;0,92503;-0,54364;-0,18584;-0,18663;-0,27042;-0,57661;-0,96081;-1,07814;-0,24204;-0,86614;0,62929;-0,42389;-0,47832;-0,08223;0,08845;-0,54386;0,76307;0,63488;-0,37453;-0,94851;0,03198;-0,15542;0,29489;0,86184;-0,14653;0,55177;0,07028;0,79776;-0,93249;0,09249;-0,04582;-0,40581;0,30174;-0,07162;-0,84964;0,22644;0,65802;0,85807;-0,22382;-0,93585;-0,96362;0,02623;-0,02883;0,44667;-0,81228;-0,67924;-0,85759;0,77877;0,7949;-0,20145;-0,50996;-0,36061;0,1247;0,82435;0,09789;0,00602;0,07597;-0,1382;-1,04074;0,16959;0,17409;-0,70787;0,8815;0,53545;0,09052;-0,00694;0,17296;0,62869;-0,29742;0,65245;-0,23193;0,90063;-0,15359;-0,56482;0,84281;0,83756;0,82151;0,94527;0,6768;-0,51871;0,34461;0,24791;0,86587;0,21013;-0,36144;-0,76834;0,34369;0,38303;0,81413;-0,01457;-0,75195;-0,32912;0,90499;0,51647;-0,14497;0,65623;0,09147;0,34593;-0,73347;0,13521;-0,05614;-0,49923;-0,0914;-1,03025;0,89702;-0,47293;0,7766;-0,33029;0,91939;0,13717;0,12819;0,06364;0,11803;0,36763;0,83543;0,84218;-0,7106;-0,32908;-0,1658;-0,23321;0,64619;0,72545;0,84035;0,70855;0,4637;-0,92186;0,88034;0,26332;0,52729;-0,84989;-0,32651;-0,58964;0,57724;-0,49292;0,39472;-0,29688;-0,70908;0,80428;0,25682;-0,87337;-0,55236;-0,54569;0,43481;-0,37518;0,82753;0,04357;0,50341;-0,59492;0,61877;-0,18643;0,3401;-0,60274;-0,46396;0,33353;0,39455;0,19768;-0,3285;0,22486;-0,53023;0,77391;-0,45898;-0,4739;0,2047;0,65296;-0,69992;-0,27337;0,32608;-0,29008;0,95086;0,01545;0,5914;-0,55261;0,33705;-0,34641;-0,68864;0,07077;-0,64913;0,09115;0,72546;-0,62573;-0,44495;0,36329;0,50529;-0,43427;-0,26219;-0,75839;0,84356;-0,83626;0,0401;-0,8423;-1,03961;-0,05905;0,22951;0,4895;0,48487;0,8934;0,33467;0,6904;-0,83727;-0,01906;0,6431;-0,27422;-0,56129;-0,4091;0,28432;-0,23214;0,11361;0,80626;0,01894;-0,82641;-0,24231;0,52368;0,41047;-0,88426;0,18745;0,07591;-0,09283;-0,48264;-0,19912;-0,92605;-0,11058;0,14972;0,59229;0,61918;-0,02659;-0,48182;0,17313;0,80018;0,21889;-0,66752;0,76137;-0,36689;-0,13457;-0,24855;-0,39578;0,64471;-0,08457;-0,12769;0,32038;-0,98234;-0,0097;0,92593;0,03007;-0,12542;0,40166;-0,6332;0,4246;0,05041;-0,82465;-0,74414;-0,069;-0,21604;-0,27102;-1,00467;-0,87384;-0,56555;0,11147;-0,19182;0,49193;-0,41179;0,48546;0,22194;-0,4607;-0,26937;-0,69791;-0,77107;-0,31442;-0,33797;0,5033;0,39724;-0,73924;-1,0546;0,15978;-0,11082;0,04346;-0,14935;-0,98179;-0,24494;-0,81874;-0,46247;0,05861;-0,88938;0,42239;-0,13796;0,37745;-0,01472;0,8025;-0,2399;-0,44023;-0,84729;-0,34763;0,87263;-0,46366;-0,71634;0,56851;0,17833;0,37086;0,63655;0,73992;-0,93275;-0,60074;-1,04794;0,18306;-0,47187;-0,28476;0,15228;0,08731;0,59431;-0,60234;-0,09711;-0,32781;0,82652;0,19312;0,31884;-0,5659;0,24817;-0,53055;-0,61599;-0,39176;-0,75664;-0,31434;0,21073;0,66359;0,69491;-0,78419;0,5757;-0,63584;-0,29124;0,54943;-0,26141;-0,60993;0,67423;-0,80567;-0,25043;0,12212;-0,11533;-0,24874;-0,081;-0,14403;-0,71856;-0,93489;0,28725;-0,55164;0,88861;0,46718;-0,2457;-0,32746;0,15949;0,73871;-0,67364;-0,33909;-0,07918;-0,07144;0,46289;0,34899;0,19174;-0,69273;0,47544;-0,75722;0,06404;-0,17137;-0,64661;-0,98116;0,59511;-0,63286;-0,04539;0,62333;-0,69839;-0,86147;0,50584;-0,49451;0,51228;0,54384;-0,67916;-0,86567;0,16733;-0,46253;0,63534;-0,92591;0,48671;-0,07582;0,04977;-0,06824;0,1728;0,85661;0,48053;-0,35499;-0,33028;0,38348;0,84725;-0,4563;0,19775;-0,42994;0,72211;0,4718;0,71615;0,27834;-0,1651;0,49302;-0,42764;0,15943;-0,75045;0,00512;-0,76531;0,79442;0,19438;0,36373;-0,43861;0,28701;-0,93351;-0,36672;-0,54268;0,32417;-0,24228;-0,96812;0,55717;0,44858;-0,36768;0,57191;-0,04147;-0,75626;-0,13656;-0,03505;-0,65944;-0,23899;0,14775;-0,13473;0,73094;-0,30917;-0,58021;0,89907;0,63193;-0,75922;0,51463;-0,74173;-0,3539;-0,98808;-0,38026;0,39208;-0,34507;-0,94861;-0,99542;0,26015;0,09257;0,17419;-0,90463;0,87787;0,79102;0,55124;0,86434;-0,85224;-0,36835;0,21023;-0,57725;-0,78593;-0,82018;0,34679;-0,47598;0,44818;-0,41176;-0,76059;0,60255;0,72335;-0,08424;-0,73192;-0,12154;-0,7099;0,7024;-0,54529;0,34954;0,42944;-0,33635;0,22523;-0,0544;-0,05147;-0,90827;0,42983;0,64418;0,17819;-0,34873;0,24593;0,0385;-0,90052;-0,18046;-0,95659;0,1654;-0,48829;0,71413;0,2217;-1,0166;0,25438;0,37113;0,22301;-0,3855;-0,69792;-0,65341;-0,72348;-0,6962;-0,1513;-0,6936;0,78294;-0,87121;0,17798;-0,87013;-0,78878;0,36747;0,23963;-0,80214;0,53474;-0,87771;-0,28102;0,53088;0,34269;-0,3378;0,3477;0,28007;0,53372;-0,19614;-0,29265;-0,07679;-0,68304;-0,47283;-0,41256;-0,5872;-0,83095;-1,02814;0,54038;-0,40794;-0,43767;-0,47322;0,79232;0,0601;-0,22656;-0,19721;-0,15164;0,10512;0,6725;0,84734;-0,43713;-0,38205;0,90359;-0,75417;-0,862;-0,03705;0,1668;0,69565;-0,99125;-0,48663;0,18859;0,02745;-0,24755;0,28921;0,54449;0,80531;0,89675;0,12481;0,4857;-0,30121;-0,97354;-0,78467;0,8153;-0,35399;0,60067;-0,02751;-0,64327;0,47223;-0,35217;-0,50382;0,61819;-0,70864;0,45657;0,55272;-0,77309;-0,91848;0,05045;-0,90998;-0,70712;0,46541;0,25908;-0,62323;-1,08945;0,02321;0,28349;0,42579;0,66926;-0,603;0,51238;-0,08013;-0,16777;0,66637;0,55445;-0,06036;0,75451;-0,75261;-0,30466;0,18897;-0,44346;0,16525;-0,35713;0,68984;-0,17163;0,36269;-0,28421;-0,12331;0,45188;0,1606;0,04902;0,39112;-0,19007;0,81336;-0,11135;0,91411;0,38189;0,49552;-0,86338;-0,20452;0,31591;-0,88381;0,24687;0,77085;0,82737;0,74697;0,65867;-1,01257;-0,27943;-0,52254;0,70945;0,96034;0,28275;0,70697;0,53667;0,08767;-0,14236;0,5607;0,49784;-0,41648;-0,88295;-0,79284;0,90671;-0,4628;0,38264;-0,80351;-1,04043;0,01963;-0,29603;0,62262;0,509;-0,81488;-1,008;0,82796;0,79471;-0,72801;0,89652;-0,26329;0,73651;-0,0122;0,69742;-0,32073;-0,80292;0,03219;0,26411;-0,05495;-1,08127;-0,02497;-0,7838;0,79475;-0,07856;0,93564;-0,95611;0,57201;-0,3311;-0,01973;-0,67812;-0,39976;-0,6299;0,72266;0,78038;-0,37901;0,17904;0,07768;-0,13902;0,49307;0,81791;0,54222;0,75905;0,1409;0,13483;-0,89764;0,7468;-0,58115;-0,16272;0,41226;0,70077;-0,55195;-1,03731;-0,31094;-0,51083;-0,05631;-0,75074;-0,37016;-0,99326;-0,1522;0,9073;0,51673;-0,4577;0,59238;-0,9111;-0,58048;-1,03378;-0,13247;-0,56548;0,66806;-0,0767;-0,66521;0,48478;-0,97027;-0,36596;-0,4503;-0,83752;0,59406;0,18549;0,86911;0,39805;0,72773;-0,54534;0,72919;-0,03035;0,68682;-0,97805;-0,92588;0,90987;0,85636;0,9163;-0,76676;0,35251;0,01005;-0,86401;-0,33948;0,40724;-0,03421;0,0167;-0,43886;-0,71095;-0,78404;-1,05989;-0,68765;0,90357;0,30854;-0,10372;0,88296;-1,0253;0,92244;-0,27782;-0,44519;0,36815;-0,89966;0,38193;-0,85952;0,03911;-0,21931;-0,41666;-0,69487;-0,60199;0,84808;-0,10683;-0,47974;0,63232;-0,32368;-0,03496;-0,56595;0,79558;0,91992;0,08277;0,20321;-0,48748;-0,39184;0,46401;0,03768;0,63063;-0,93575;0,70329;0,60709;-0,25263;-0,92846;-0,93015;-1,07583;-0,01886;0,31564;-0,21152;0,20499;0,5518;0,92843;0,58427;-0,42129;-0,70383;-0,41263;-0,81553;-0,55886;0,31669;0,35815;-0,35695;0,23109;-0,68422;-0,60129;-0,94378;-0,97986;-0,19507;0,52525;-1,03126;-0,26438;-0,42838;-0,69592;-0,51991;-0,14209;-0,0006;-0,03112;0,50665;-0,77473;0,76075;-0,16403;0,40592;-0,66188;0,80966;0,7138;-0,1808;0,89411;-0,81617;-0,63491;-0,19996;0,88933;-0,65084;0,02121;0,71414;-0,80312;0,46757;-0,51835;0,20985;-0,68509;-1,05167;-1,06282;0,08209;0,41462;0,29558;-1,03235;-0,44331;0,17911;0,41304;-0,29334;0,56141;0,2616;-0,01243;0,87074;-0,41471;-0,56875;0,91119;-0,73619;0,32424;-0,37957;0,57687;-0,92048;0,78272;-0,63169;-0,39209;-0,93998;-0,70729;0,55415;-0,45982;-0,80883;0,40727;-0,52659;0,71302;0,15555;-0,81949;0,70249;0,69901;0,96753;0,03076;0,75953;0,05738;0,49765;-0,5523;0,48666;-0,19974;0,51411;-0,16105;-0,55237;-0,70688;0,17208;-0,68178;0,12781;0,07631;-0,45715;-0,27851;0,77367;-0,8303;-0,37599;-0,25693;0,12544;0,60872;-0,06977;-0,41576;0,15574;0,26572;0,06491;0,45447;0,8038;0,53919;-0,19815;-0,37522;0,90758;0,19396;0,54338;0,47279;-1,00591;0,5748;-0,74745;0,52797;0,09286;0,19246;0,80577;0,14133;0,27046;0,85626;-0,82808;0,37617;0,16714;-0,51949;-0,64381;0,56958;0,07238;0,14554;0,76754;-0,92929;-0,90235;-0,13951;0,18502;-0,84488;0,67794;-0,99602;-0,02506;-0,16177;0,45537;-0,4858;-0,61567;0,84396;0,4075;-0,02158;-0,34657;-0,83432;0,85332;0,02268;0,61108;0,87938;0,71472;0,71259;0,24871;0,25118;-0,0416;0,61458;-0,74105;0,30253;0,14915;0,19293;0,53041;-0,3191;0,35624;0,49781;0,30785;0,0322;-0,65221;-1,03532;0,85193;0,01346;-0,84634;-0,06612;0,68751;-0,2674;0,41242;-0,69517;0,87107;-0,85521;0,68358;-0,87735;0,63946;-0,98152;0,41065;0,85368;-0,72654;-0,64557;0,57508;0,88396;0,16939;-0,99099;0,6987;0,61816;0,59077;-0,85544;-0,0062;0,59754;-0,57595;0,9241;0,65219;0,51356;0,73409;0,79611;0,12499;-0,4917;0,67989;-0,25181;0,9697;-0,45229;0,78886;-0,36236;0,62534;-0,92668;0,48355;-0,03594;0,53173;0,47121;0,176;0,49849;0,12126;-0,11538;0,42594;-0,54754;-0,23083;0,81573;0,25978;-0,51378;0,27085;0,46183;0,68438;0,82656;0,82038;-1,06555;-0,53061;-0,85837;-0,60782;0,71229;-0,19586;-0,14696;-0,84568;0,50245;-0,64747;-0,04854;-0,96695;-0,59084;-0,65659;0,60417;-0,95958;-0,46605;-0,46498;0,42038;-0,70834;-0,09749;-0,28317;-0,30471;-0,98444;0,23878;-0,04495;0,29931;0,21553;0,09681;0,34732;-0,60831;-0,25224;-1,07074;-0,16375;0,6007;0,61006;0,36781;-0,45466;0,77739;-0,45645;-0,65752;0,26073;0,61567;-0,45672;-0,5661;-0,59134;-0,69745;0,45166;0,5937;-0,59318;-0,34755;-0,05682;-0,87445;0,41348;-0,21341;0,22518;0,70823;-0,94732;0,0712;-0,27662;-0,24699;0,05683;0,3451;0,12882;0,38538;-0,32558;0,14681;0,64883;-0,71574;0,55974;0,3597;0,06963;0,89786;-0,37677;0,49754;0,65754;-0,21518;-0,94668;-0,49224;-0,53756;0,17259;-0,15099;0,87962;-0,23285;-0,14361;0,7922;0,87633;-0,16391;0,71204;0,4671;-0,83807;-0,7321;0,29293;0,79489;0,61207;0,75658;0,68173;0,42014;-0,75137;0,00781;0,47616;-0,16149;-0,52353;0,20203;0,22576;-0,56704;-0,91535;-0,00836;0,24665;-0,19135;-0,48421;0,10093;0,36644;-0,28815;-0,70254;0,85602;0,17244;-0,43101;-0,78924;0,56574;-0,28005;-0,77171;0,84187;-0,28835;0,39162;0,09724;0,79019;-0,87552;-0,06283;0,69338;-1,02006;0,29763;0,81503;0,43637;-0,14225;-0,63594;-0,66105;-0,46677;0,4377;-0,62558;0,71831;-0,1257;0,63178;-0,13595;-0,11391;-0,14674;-0,26915;-0,56013;0,34273;0,77471;-0,36298;-0,02711;0,21747;-0,34021;-0,91775;0,23766;-0,12423;0,68799;0,81283;-0,9373;-0,43715;-1,07944;-1,0445;0,53409;-0,17625;0,22526;0,28627;0,8705;0,83045;0,95313;0,54199;-0,46778;0,11068;0,85692;0,79491;0,86668;-0,39601;-0,10449;0,82302;-0,56275;-0,61716;0,17977;-0,30495;0,15421;-0,00013;-0,16433;-0,85885;-0,01563;0,2053;0,72123;0,45291;-0,45541;-0,26428;0,427;0,60431;0,64991;-0,14493;-0,94596;-1,0747;0,66896;0,56237;-0,26844;-0,31919;0,4478;-0,83918;-0,95223;0,82524;0,2873;-0,16739;-0,81318;-0,41725;-1,10103;0,79321;0,23344;0,65153;0,38275;0,25533;-0,22069;-0,62442;0,94341;-0,0243;-0,69852;-0,33645;-0,98726;-0,57625;-0,07553;0,85545;0,60454;-0,82839;-0,87717;-0,06681;-0,53794;-0,16954;-0,77782;-0,077;0,55485;-0,45324;0,14364;-0,01366;-0,09021;-0,09447;-0,29376;-0,85103;0,03345;0,13549;0,44931;-0,38007;0,29445;0,78574;-0,76285;-0,61439;-0,94797;0,59196;-1,02239;-0,51627;0,17659;-0,84338;-0,46649;-0,0297;0,12029;-0,8401;-0,85058;0,13237;-0,46543;0,20005;-1,01831;0,06379;0,53832;-0,70162;-0,88636;-0,21545;-0,9471;0,63695;0,43545;-0,16888;-0,82263;-0,96441;0,54141;-0,03179;-0,03256;-0,73705;-0,59486;0,78858;0,85059;0,71298;-0,09125;-0,06927;-0,25312;0,59794;0,5861;0,36336;0,91358;-0,75225;0,81454;-0,17722;-0,31851;0,6186;0,5794;0,79663;0,09117;-0,67348;0,02114;-0,028;0,60197;0,40977;-0,67673;-0,73699;-0,86523;0,07515;-0,74089;0,16369;-0,47693;0,56726;0,86948;-0,2321;0,72702;-0,67369;0,26926;-0,26099;-0,73907;-0,03705;-0,88153;0,93737;-0,37535;-0,35208;-0,22899;0,74235;0,81702;-0,3577;-0,83049;-0,45408;-0,60946;0,72541;0,84894;-0,33307;0,11325;0,38477;-0,86908;-0,76452;0,47198;-0,40469;-0,24174;0,65463;0,24963;-0,5424;-0,1337;-0,69084;-0,74669;0,07127;-0,01563;-0,68056;-0,67986;-0,24873;0,46366;-0,96349;-0,91424;0,08929;-0,72761;-0,09979;-0,37868;-0,51484;-0,59745;0,41871;-0,11249;0,63586;-0,31031;-0,32209;0,7115;0,25294;0,64728;-0,81754;-0,9586;-0,09488;0,25241;0,5387;-0,74604;-0,48254;-0,45424;-0,77793;0,81594;-0,52592;0,42568;-0,34913;0,46717;0,68955;-0,74333;0,6001;-0,7684;0,78397;-0,5952;0,8865;0,08627;0,25035;0,61602;-0,05934;-0,8816;0,26593;-0,28031;0,59302;0,62753;-0,83657;-0,43752;0,06734;0,40616;-0,19606;-0,79368;0,24536;0,36803;0,88029;0,78517;0,57903;-0,41187;-1,06683;0,08668;-0,92721;0,11564;0,71248;0,84421;0,10232;0,31012;0,02802;-0,65737;0,88053;-0,25823;0,6368;-0,01244;-0,18263;0,20392;-0,65955;0,47861;-0,11037;0,67536;-0,21048;-0,51255;0,59151;0,92047;-0,74407;0,34508;-0,26249;0,45995;-0,02348;-0,82536;-0,58185;-1,09561;-0,21469;0,39011;0,18263;-0,84805;0,45432;0,82557;-0,7286;0,35505;0,47608;-0,62878;-0,5216;0,71325;-0,43528;-0,65115;0,6397;0,72665;0,37202;-0,95738;0,83325;0,69393;-0,24898;0,56515;-0,67748;-0,57589;-0,9011;-0,36159;-0,41905;-0,71077;-0,14483;-0,33152;0,30857;0,64503;-0,006;-0,09985;0,6578;0,3453;-0,43663;0,28275;0,48552;0,28146;-0,81044;0,48134;0,0351;0,18547;0,59291;-0,87809;-0,7178;0,07199;-0,09514;-0,15969;-0,85542;0,84589;-0,66515;0,88491;0,40449;-0,19005;-0,45549;-0,85397;0,01659;0,32496;0,64466;0,4579;-0,67967;-0,73945;-0,19336;-0,0071;0,44241;0,08723;-0,25288;-0,95593;-0,14478;0,15942;-0,24781;-0,53922;0,42553;0,30516;-0,59643;0,14521;-0,21681;0,89319;-0,71489;0,42928;0,44329;-0,94071;-0,48319;0,46317;0,26606;0,0546;0,62257;-0,18041;-0,28747;-0,59559;-0,94931;-0,92703;0,78296;-0,36794;0,102;-0,20076;-0,65304;-0,34665;-0,33574;0,20341;-0,75035;-0,24008;0,72923;-0,11223;0,02264;0,93238;-0,56091;-1,05068;-0,60141;0,40908;0,15366;0,11293;-0,05622;-0,79878;-0,91742;-0,82938;0,60246;0,35773;0,62456;-0,5841;0,51079;1,01553;0,32787;-0,48385;-0,02912;-0,35729;-0,21091;-0,31216;-0,84411;0,67612;-0,11649;-0,78378;0,18382;0,09736;0,04887;-0,405;-0,74576;0,58713;-0,6211;0,35378;-0,51112;0,42989;-0,51101;0,17018;0,04902;0,05838;0,10307;0,37261;-0,3736;-0,00834;0,00606;-0,08732;-0,16774;-0,75602;0,57445;-0,63142;0,43869;0,27046;0,89529;-0,57999;0,09431;0,74192;0,76442;-0,3308;-0,44986;-0,10125;0,84739;0,86296;0,06679;0,33381;0,83792;-0,97356;-0,08388;-0,73173;0,81667;1,03912;0,42037;-0,86626;0,44416;0,85293;0,52697;0,32576;-0,89208;0,10062;-0,4447;0,8782;0,30876;-0,09447;0,34349;-0,17041;0,23774;-0,0868;0,60171;0,89458;-0,76853;-0,27983;0,6739;0,71076;-0,35976;-0,92718;0,22854;0,06906;-0,75518;0,14968;0,15959;-0,01628;1,01103;-0,33235;-0,64013;0,5949;-0,26627;0,09847;0,99959;-1,02926;-0,15529;0,69468;0,5805;-0,43494;-0,85043;-0,49243;0,67244;-0,10492;-0,53785;-0,88824;-0,9824;0,06;-0,67224;0,05821;0,83866;0,05359;-0,82538;0,59469;0,41412;0,185;-0,31678;-0,63868;0,09145;-0,15422;-0,96558;0,38257;-1,09476;-0,22753;-0,41266;0,74437;-0,98848;-1,09932;-0,09537;0,63167;0,12676;-0,45838;0,17399;0,05736;0,731;-0,90673;-0,61557;-0,63566;-0,42141;-0,95802;0,11046;-1,06878;-0,31068;-0,01156;-0,45169;0,28445;0,36864;0,06257;0,80276;-0,29642;0,35106;-0,7471;-0,45282;-0,25953;-0,55031;-0,31005;-0,47709;-0,22128;-0,87063;-0,42463;-0,82301;-0,93142;-0,92833;-0,4289;0,89707;0,34903;0,96869;0,11707;-1,03699;0,27295;-0,26424;-0,69944;0,81547;-0,12872;0,73618;-1,09219;-0,40619;0,06025;-0,82983;0,28738;-0,62759;-0,16244;-0,85318;-0,67285;-0,66424;-0,32453;0,98134;-0,56025;-0,55138;-0,03007;0,54158;0,47123;-0,84823;0,92669;0,8818;-0,05148;1,038;-0,99967;0,04511;0,23172;0,26065;-0,7539;0,15169;-0,55067;0,79657;-0,07482;-0,36234;0,71889;-0,12881;-0,57097;-1,02061;0,51122;-0,37969;-0,17115;-0,75514;0,19751;0,92556;0,8639;-0,67605;0,12255;0,31213;0,54272;-0,55019;-0,03529;0,7027;0,27843;-0,91772;0,70263;-0,05427;-0,24475;-0,96039;-0,52265;-0,9457;-0,11285;-1,00367;-0,92311;0,77838;0,61101;-0,52341;0,29142;-0,88758;-0,67306;0,43338;-0,94351;-0,18437;-1,03459;-0,16421;0,42336;0,78273;-0,20062;-0,13288;-0,8367;0,83743;0,86215;0,90342;0,7037;0,64445;-0,93093;-0,31513;-0,62686;-0,02547;-0,29197;-0,39331;-1,01207;-0,59083;0,39963;0,41949;0,76185;-0,32095;-0,93591;0,22047;-0,72643;0,30167;0,00472;-0,0906;0,06965;-0,93918;-0,55737;-0,86285;0,76556;-0,44254;-0,41658;-0,96122;-0,76988;0,9208;0,87438;-0,34057;-0,88474;-0,01596;-0,65224;-0,65567;0,80982;-0,24764;-0,99337;-0,65561;0,41651;0,58651;0,35833;0,63947;0,32828;